{"learner":{"attributes":{"best_iteration":"99","best_ntree_limit":"100","scikit_learn":"{\"use_label_encoder\": false, \"n_estimators\": 100, \"objective\": \"multi:softprob\", \"max_depth\": null, \"learning_rate\": null, \"verbosity\": null, \"booster\": null, \"tree_method\": null, \"gamma\": null, \"min_child_weight\": null, \"max_delta_step\": null, \"subsample\": null, \"colsample_bytree\": null, \"colsample_bylevel\": null, \"colsample_bynode\": null, \"reg_alpha\": null, \"reg_lambda\": null, \"scale_pos_weight\": null, \"base_score\": null, \"missing\": NaN, \"num_parallel_tree\": null, \"random_state\": null, \"n_jobs\": null, \"monotone_constraints\": null, \"interaction_constraints\": null, \"importance_type\": null, \"gpu_id\": null, \"validate_parameters\": null, \"predictor\": null, \"enable_categorical\": false, \"classes_\": [0, 1, 2, 3, 4, 5, 6, 7, 8, 9, 10, 11, 12, 13, 14, 15, 16, 17, 18, 19, 20, 21, 22, 23, 24, 25, 26, 27, 28, 29, 30, 31, 32, 33, 34, 35, 36, 37, 38, 39, 40], \"n_classes_\": 41, \"_estimator_type\": \"classifier\"}"},"feature_names":["muscle_weakness","coma","red_spots_over_body","high_fever","receiving_blood_transfusion","blood_in_sputum","rusty_sputum","pain_behind_the_eyes","slurred_speech","throat_irritation","enlarged_thyroid","increased_appetite","shivering","nodal_skin_eruptions","sunken_eyes","spotting_urination","lack_of_concentration","pus_filled_pimples","altered_sensorium","weakness_in_limbs","mucoid_sputum","unsteadiness","malaise","patches_in_throat","visual_disturbances","irritability","hip_joint_pain","movement_stiffness","passage_of_gases","bladder_discomfort","toxic_look_typhos","pain_during_bowel_movements","blister","ulcers_on_tongue","silver_like_dusting","history_of_alcohol_consumption"],"feature_types":["int","int","int","int","int","int","int","int","int","int","int","int","int","int","int","int","int","int","int","int","int","int","int","int","int","int","int","int","int","int","int","int","int","int","int","int"],"gradient_booster":{"model":{"gbtree_model_param":{"num_trees":"4100","size_leaf_vector":"0"},"tree_info":[0,1,2,3,4,5,6,7,8,9,10,11,12,13,14,15,16,17,18,19,20,21,22,23,24,25,26,27,28,29,30,31,32,33,34,35,36,37,38,39,40,0,1,2,3,4,5,6,7,8,9,10,11,12,13,14,15,16,17,18,19,20,21,22,23,24,25,26,27,28,29,30,31,32,33,34,35,36,37,38,39,40,0,1,2,3,4,5,6,7,8,9,10,11,12,13,14,15,16,17,18,19,20,21,22,23,24,25,26,27,28,29,30,31,32,33,34,35,36,37,38,39,40,0,1,2,3,4,5,6,7,8,9,10,11,12,13,14,15,16,17,18,19,20,21,22,23,24,25,26,27,28,29,30,31,32,33,34,35,36,37,38,39,40,0,1,2,3,4,5,6,7,8,9,10,11,12,13,14,15,16,17,18,19,20,21,22,23,24,25,26,27,28,29,30,31,32,33,34,35,36,37,38,39,40,0,1,2,3,4,5,6,7,8,9,10,11,12,13,14,15,16,17,18,19,20,21,22,23,24,25,26,27,28,29,30,31,32,33,34,35,36,37,38,39,40,0,1,2,3,4,5,6,7,8,9,10,11,12,13,14,15,16,17,18,19,20,21,22,23,24,25,26,27,28,29,30,31,32,33,34,35,36,37,38,39,40,0,1,2,3,4,5,6,7,8,9,10,11,12,13,14,15,16,17,18,19,20,21,22,23,24,25,26,27,28,29,30,31,32,33,34,35,36,37,38,39,40,0,1,2,3,4,5,6,7,8,9,10,11,12,13,14,15,16,17,18,19,20,21,22,23,24,25,26,27,28,29,30,31,32,33,34,35,36,37,38,39,40,0,1,2,3,4,5,6,7,8,9,10,11,12,13,14,15,16,17,18,19,20,21,22,23,24,25,26,27,28,29,30,31,32,33,34,35,36,37,38,39,40,0,1,2,3,4,5,6,7,8,9,10,11,12,13,14,15,16,17,18,19,20,21,22,23,24,25,26,27,28,29,30,31,32,33,34,35,36,37,38,39,40,0,1,2,3,4,5,6,7,8,9,10,11,12,13,14,15,16,17,18,19,20,21,22,23,24,25,26,27,28,29,30,31,32,33,34,35,36,37,38,39,40,0,1,2,3,4,5,6,7,8,9,10,11,12,13,14,15,16,17,18,19,20,21,22,23,24,25,26,27,28,29,30,31,32,33,34,35,36,37,38,39,40,0,1,2,3,4,5,6,7,8,9,10,11,12,13,14,15,16,17,18,19,20,21,22,23,24,25,26,27,28,29,30,31,32,33,34,35,36,37,38,39,40,0,1,2,3,4,5,6,7,8,9,10,11,12,13,14,15,16,17,18,19,20,21,22,23,24,25,26,27,28,29,30,31,32,33,34,35,36,37,38,39,40,0,1,2,3,4,5,6,7,8,9,10,11,12,13,14,15,16,17,18,19,20,21,22,23,24,25,26,27,28,29,30,31,32,33,34,35,36,37,38,39,40,0,1,2,3,4,5,6,7,8,9,10,11,12,13,14,15,16,17,18,19,20,21,22,23,24,25,26,27,28,29,30,31,32,33,34,35,36,37,38,39,40,0,1,2,3,4,5,6,7,8,9,10,11,12,13,14,15,16,17,18,19,20,21,22,23,24,25,26,27,28,29,30,31,32,33,34,35,36,37,38,39,40,0,1,2,3,4,5,6,7,8,9,10,11,12,13,14,15,16,17,18,19,20,21,22,23,24,25,26,27,28,29,30,31,32,33,34,35,36,37,38,39,40,0,1,2,3,4,5,6,7,8,9,10,11,12,13,14,15,16,17,18,19,20,21,22,23,24,25,26,27,28,29,30,31,32,33,34,35,36,37,38,39,40,0,1,2,3,4,5,6,7,8,9,10,11,12,13,14,15,16,17,18,19,20,21,22,23,24,25,26,27,28,29,30,31,32,33,34,35,36,37,38,39,40,0,1,2,3,4,5,6,7,8,9,10,11,12,13,14,15,16,17,18,19,20,21,22,23,24,25,26,27,28,29,30,31,32,33,34,35,36,37,38,39,40,0,1,2,3,4,5,6,7,8,9,10,11,12,13,14,15,16,17,18,19,20,21,22,23,24,25,26,27,28,29,30,31,32,33,34,35,36,37,38,39,40,0,1,2,3,4,5,6,7,8,9,10,11,12,13,14,15,16,17,18,19,20,21,22,23,24,25,26,27,28,29,30,31,32,33,34,35,36,37,38,39,40,0,1,2,3,4,5,6,7,8,9,10,11,12,13,14,15,16,17,18,19,20,21,22,23,24,25,26,27,28,29,30,31,32,33,34,35,36,37,38,39,40,0,1,2,3,4,5,6,7,8,9,10,11,12,13,14,15,16,17,18,19,20,21,22,23,24,25,26,27,28,29,30,31,32,33,34,35,36,37,38,39,40,0,1,2,3,4,5,6,7,8,9,10,11,12,13,14,15,16,17,18,19,20,21,22,23,24,25,26,27,28,29,30,31,32,33,34,35,36,37,38,39,40,0,1,2,3,4,5,6,7,8,9,10,11,12,13,14,15,16,17,18,19,20,21,22,23,24,25,26,27,28,29,30,31,32,33,34,35,36,37,38,39,40,0,1,2,3,4,5,6,7,8,9,10,11,12,13,14,15,16,17,18,19,20,21,22,23,24,25,26,27,28,29,30,31,32,33,34,35,36,37,38,39,40,0,1,2,3,4,5,6,7,8,9,10,11,12,13,14,15,16,17,18,19,20,21,22,23,24,25,26,27,28,29,30,31,32,33,34,35,36,37,38,39,40,0,1,2,3,4,5,6,7,8,9,10,11,12,13,14,15,16,17,18,19,20,21,22,23,24,25,26,27,28,29,30,31,32,33,34,35,36,37,38,39,40,0,1,2,3,4,5,6,7,8,9,10,11,12,13,14,15,16,17,18,19,20,21,22,23,24,25,26,27,28,29,30,31,32,33,34,35,36,37,38,39,40,0,1,2,3,4,5,6,7,8,9,10,11,12,13,14,15,16,17,18,19,20,21,22,23,24,25,26,27,28,29,30,31,32,33,34,35,36,37,38,39,40,0,1,2,3,4,5,6,7,8,9,10,11,12,13,14,15,16,17,18,19,20,21,22,23,24,25,26,27,28,29,30,31,32,33,34,35,36,37,38,39,40,0,1,2,3,4,5,6,7,8,9,10,11,12,13,14,15,16,17,18,19,20,21,22,23,24,25,26,27,28,29,30,31,32,33,34,35,36,37,38,39,40,0,1,2,3,4,5,6,7,8,9,10,11,12,13,14,15,16,17,18,19,20,21,22,23,24,25,26,27,28,29,30,31,32,33,34,35,36,37,38,39,40,0,1,2,3,4,5,6,7,8,9,10,11,12,13,14,15,16,17,18,19,20,21,22,23,24,25,26,27,28,29,30,31,32,33,34,35,36,37,38,39,40,0,1,2,3,4,5,6,7,8,9,10,11,12,13,14,15,16,17,18,19,20,21,22,23,24,25,26,27,28,29,30,31,32,33,34,35,36,37,38,39,40,0,1,2,3,4,5,6,7,8,9,10,11,12,13,14,15,16,17,18,19,20,21,22,23,24,25,26,27,28,29,30,31,32,33,34,35,36,37,38,39,40,0,1,2,3,4,5,6,7,8,9,10,11,12,13,14,15,16,17,18,19,20,21,22,23,24,25,26,27,28,29,30,31,32,33,34,35,36,37,38,39,40,0,1,2,3,4,5,6,7,8,9,10,11,12,13,14,15,16,17,18,19,20,21,22,23,24,25,26,27,28,29,30,31,32,33,34,35,36,37,38,39,40,0,1,2,3,4,5,6,7,8,9,10,11,12,13,14,15,16,17,18,19,20,21,22,23,24,25,26,27,28,29,30,31,32,33,34,35,36,37,38,39,40,0,1,2,3,4,5,6,7,8,9,10,11,12,13,14,15,16,17,18,19,20,21,22,23,24,25,26,27,28,29,30,31,32,33,34,35,36,37,38,39,40,0,1,2,3,4,5,6,7,8,9,10,11,12,13,14,15,16,17,18,19,20,21,22,23,24,25,26,27,28,29,30,31,32,33,34,35,36,37,38,39,40,0,1,2,3,4,5,6,7,8,9,10,11,12,13,14,15,16,17,18,19,20,21,22,23,24,25,26,27,28,29,30,31,32,33,34,35,36,37,38,39,40,0,1,2,3,4,5,6,7,8,9,10,11,12,13,14,15,16,17,18,19,20,21,22,23,24,25,26,27,28,29,30,31,32,33,34,35,36,37,38,39,40,0,1,2,3,4,5,6,7,8,9,10,11,12,13,14,15,16,17,18,19,20,21,22,23,24,25,26,27,28,29,30,31,32,33,34,35,36,37,38,39,40,0,1,2,3,4,5,6,7,8,9,10,11,12,13,14,15,16,17,18,19,20,21,22,23,24,25,26,27,28,29,30,31,32,33,34,35,36,37,38,39,40,0,1,2,3,4,5,6,7,8,9,10,11,12,13,14,15,16,17,18,19,20,21,22,23,24,25,26,27,28,29,30,31,32,33,34,35,36,37,38,39,40,0,1,2,3,4,5,6,7,8,9,10,11,12,13,14,15,16,17,18,19,20,21,22,23,24,25,26,27,28,29,30,31,32,33,34,35,36,37,38,39,40,0,1,2,3,4,5,6,7,8,9,10,11,12,13,14,15,16,17,18,19,20,21,22,23,24,25,26,27,28,29,30,31,32,33,34,35,36,37,38,39,40,0,1,2,3,4,5,6,7,8,9,10,11,12,13,14,15,16,17,18,19,20,21,22,23,24,25,26,27,28,29,30,31,32,33,34,35,36,37,38,39,40,0,1,2,3,4,5,6,7,8,9,10,11,12,13,14,15,16,17,18,19,20,21,22,23,24,25,26,27,28,29,30,31,32,33,34,35,36,37,38,39,40,0,1,2,3,4,5,6,7,8,9,10,11,12,13,14,15,16,17,18,19,20,21,22,23,24,25,26,27,28,29,30,31,32,33,34,35,36,37,38,39,40,0,1,2,3,4,5,6,7,8,9,10,11,12,13,14,15,16,17,18,19,20,21,22,23,24,25,26,27,28,29,30,31,32,33,34,35,36,37,38,39,40,0,1,2,3,4,5,6,7,8,9,10,11,12,13,14,15,16,17,18,19,20,21,22,23,24,25,26,27,28,29,30,31,32,33,34,35,36,37,38,39,40,0,1,2,3,4,5,6,7,8,9,10,11,12,13,14,15,16,17,18,19,20,21,22,23,24,25,26,27,28,29,30,31,32,33,34,35,36,37,38,39,40,0,1,2,3,4,5,6,7,8,9,10,11,12,13,14,15,16,17,18,19,20,21,22,23,24,25,26,27,28,29,30,31,32,33,34,35,36,37,38,39,40,0,1,2,3,4,5,6,7,8,9,10,11,12,13,14,15,16,17,18,19,20,21,22,23,24,25,26,27,28,29,30,31,32,33,34,35,36,37,38,39,40,0,1,2,3,4,5,6,7,8,9,10,11,12,13,14,15,16,17,18,19,20,21,22,23,24,25,26,27,28,29,30,31,32,33,34,35,36,37,38,39,40,0,1,2,3,4,5,6,7,8,9,10,11,12,13,14,15,16,17,18,19,20,21,22,23,24,25,26,27,28,29,30,31,32,33,34,35,36,37,38,39,40,0,1,2,3,4,5,6,7,8,9,10,11,12,13,14,15,16,17,18,19,20,21,22,23,24,25,26,27,28,29,30,31,32,33,34,35,36,37,38,39,40,0,1,2,3,4,5,6,7,8,9,10,11,12,13,14,15,16,17,18,19,20,21,22,23,24,25,26,27,28,29,30,31,32,33,34,35,36,37,38,39,40,0,1,2,3,4,5,6,7,8,9,10,11,12,13,14,15,16,17,18,19,20,21,22,23,24,25,26,27,28,29,30,31,32,33,34,35,36,37,38,39,40,0,1,2,3,4,5,6,7,8,9,10,11,12,13,14,15,16,17,18,19,20,21,22,23,24,25,26,27,28,29,30,31,32,33,34,35,36,37,38,39,40,0,1,2,3,4,5,6,7,8,9,10,11,12,13,14,15,16,17,18,19,20,21,22,23,24,25,26,27,28,29,30,31,32,33,34,35,36,37,38,39,40,0,1,2,3,4,5,6,7,8,9,10,11,12,13,14,15,16,17,18,19,20,21,22,23,24,25,26,27,28,29,30,31,32,33,34,35,36,37,38,39,40,0,1,2,3,4,5,6,7,8,9,10,11,12,13,14,15,16,17,18,19,20,21,22,23,24,25,26,27,28,29,30,31,32,33,34,35,36,37,38,39,40,0,1,2,3,4,5,6,7,8,9,10,11,12,13,14,15,16,17,18,19,20,21,22,23,24,25,26,27,28,29,30,31,32,33,34,35,36,37,38,39,40,0,1,2,3,4,5,6,7,8,9,10,11,12,13,14,15,16,17,18,19,20,21,22,23,24,25,26,27,28,29,30,31,32,33,34,35,36,37,38,39,40,0,1,2,3,4,5,6,7,8,9,10,11,12,13,14,15,16,17,18,19,20,21,22,23,24,25,26,27,28,29,30,31,32,33,34,35,36,37,38,39,40,0,1,2,3,4,5,6,7,8,9,10,11,12,13,14,15,16,17,18,19,20,21,22,23,24,25,26,27,28,29,30,31,32,33,34,35,36,37,38,39,40,0,1,2,3,4,5,6,7,8,9,10,11,12,13,14,15,16,17,18,19,20,21,22,23,24,25,26,27,28,29,30,31,32,33,34,35,36,37,38,39,40,0,1,2,3,4,5,6,7,8,9,10,11,12,13,14,15,16,17,18,19,20,21,22,23,24,25,26,27,28,29,30,31,32,33,34,35,36,37,38,39,40,0,1,2,3,4,5,6,7,8,9,10,11,12,13,14,15,16,17,18,19,20,21,22,23,24,25,26,27,28,29,30,31,32,33,34,35,36,37,38,39,40,0,1,2,3,4,5,6,7,8,9,10,11,12,13,14,15,16,17,18,19,20,21,22,23,24,25,26,27,28,29,30,31,32,33,34,35,36,37,38,39,40,0,1,2,3,4,5,6,7,8,9,10,11,12,13,14,15,16,17,18,19,20,21,22,23,24,25,26,27,28,29,30,31,32,33,34,35,36,37,38,39,40,0,1,2,3,4,5,6,7,8,9,10,11,12,13,14,15,16,17,18,19,20,21,22,23,24,25,26,27,28,29,30,31,32,33,34,35,36,37,38,39,40,0,1,2,3,4,5,6,7,8,9,10,11,12,13,14,15,16,17,18,19,20,21,22,23,24,25,26,27,28,29,30,31,32,33,34,35,36,37,38,39,40,0,1,2,3,4,5,6,7,8,9,10,11,12,13,14,15,16,17,18,19,20,21,22,23,24,25,26,27,28,29,30,31,32,33,34,35,36,37,38,39,40,0,1,2,3,4,5,6,7,8,9,10,11,12,13,14,15,16,17,18,19,20,21,22,23,24,25,26,27,28,29,30,31,32,33,34,35,36,37,38,39,40,0,1,2,3,4,5,6,7,8,9,10,11,12,13,14,15,16,17,18,19,20,21,22,23,24,25,26,27,28,29,30,31,32,33,34,35,36,37,38,39,40,0,1,2,3,4,5,6,7,8,9,10,11,12,13,14,15,16,17,18,19,20,21,22,23,24,25,26,27,28,29,30,31,32,33,34,35,36,37,38,39,40,0,1,2,3,4,5,6,7,8,9,10,11,12,13,14,15,16,17,18,19,20,21,22,23,24,25,26,27,28,29,30,31,32,33,34,35,36,37,38,39,40,0,1,2,3,4,5,6,7,8,9,10,11,12,13,14,15,16,17,18,19,20,21,22,23,24,25,26,27,28,29,30,31,32,33,34,35,36,37,38,39,40,0,1,2,3,4,5,6,7,8,9,10,11,12,13,14,15,16,17,18,19,20,21,22,23,24,25,26,27,28,29,30,31,32,33,34,35,36,37,38,39,40,0,1,2,3,4,5,6,7,8,9,10,11,12,13,14,15,16,17,18,19,20,21,22,23,24,25,26,27,28,29,30,31,32,33,34,35,36,37,38,39,40,0,1,2,3,4,5,6,7,8,9,10,11,12,13,14,15,16,17,18,19,20,21,22,23,24,25,26,27,28,29,30,31,32,33,34,35,36,37,38,39,40,0,1,2,3,4,5,6,7,8,9,10,11,12,13,14,15,16,17,18,19,20,21,22,23,24,25,26,27,28,29,30,31,32,33,34,35,36,37,38,39,40,0,1,2,3,4,5,6,7,8,9,10,11,12,13,14,15,16,17,18,19,20,21,22,23,24,25,26,27,28,29,30,31,32,33,34,35,36,37,38,39,40,0,1,2,3,4,5,6,7,8,9,10,11,12,13,14,15,16,17,18,19,20,21,22,23,24,25,26,27,28,29,30,31,32,33,34,35,36,37,38,39,40,0,1,2,3,4,5,6,7,8,9,10,11,12,13,14,15,16,17,18,19,20,21,22,23,24,25,26,27,28,29,30,31,32,33,34,35,36,37,38,39,40,0,1,2,3,4,5,6,7,8,9,10,11,12,13,14,15,16,17,18,19,20,21,22,23,24,25,26,27,28,29,30,31,32,33,34,35,36,37,38,39,40,0,1,2,3,4,5,6,7,8,9,10,11,12,13,14,15,16,17,18,19,20,21,22,23,24,25,26,27,28,29,30,31,32,33,34,35,36,37,38,39,40,0,1,2,3,4,5,6,7,8,9,10,11,12,13,14,15,16,17,18,19,20,21,22,23,24,25,26,27,28,29,30,31,32,33,34,35,36,37,38,39,40,0,1,2,3,4,5,6,7,8,9,10,11,12,13,14,15,16,17,18,19,20,21,22,23,24,25,26,27,28,29,30,31,32,33,34,35,36,37,38,39,40,0,1,2,3,4,5,6,7,8,9,10,11,12,13,14,15,16,17,18,19,20,21,22,23,24,25,26,27,28,29,30,31,32,33,34,35,36,37,38,39,40,0,1,2,3,4,5,6,7,8,9,10,11,12,13,14,15,16,17,18,19,20,21,22,23,24,25,26,27,28,29,30,31,32,33,34,35,36,37,38,39,40,0,1,2,3,4,5,6,7,8,9,10,11,12,13,14,15,16,17,18,19,20,21,22,23,24,25,26,27,28,29,30,31,32,33,34,35,36,37,38,39,40,0,1,2,3,4,5,6,7,8,9,10,11,12,13,14,15,16,17,18,19,20,21,22,23,24,25,26,27,28,29,30,31,32,33,34,35,36,37,38,39,40],"trees":[{"base_weights":[-2.1240743E-2,-4.5008886E-1,1.6277418E1,-4.249483E-1,-5.030037E-1],"categories":[],"categories_nodes":[],"categories_segments":[],"categories_sizes":[],"default_left":[true,true,false,false,false],"id":0,"left_children":[1,3,-1,-1,-1],"loss_changes":[1.3235966E3,3.16391E-2,0E0,0E0,0E0],"parents":[2147483647,0,0,1,1],"right_children":[2,4,-1,-1,-1],"split_conditions":[5E-1,5E-1,4.8832254E0,-1.274845E-1,-1.5090112E-1],"split_indices":[13,3,0,0,0],"split_type":[0,0,0,0,0],"sum_hessian":[1.8731706E2,1.8346222E2,3.8548481E0,1.3049374E2,5.2968468E1],"tree_param":{"num_deleted":"0","num_feature":"36","num_nodes":"5","size_leaf_vector":"0"}},{"base_weights":[-1.593055E-2,-4.717209E-1,1.6474712E1],"categories":[],"categories_nodes":[],"categories_segments":[],"categories_sizes":[],"default_left":[true,false,false],"id":1,"left_children":[1,-1,-1],"loss_changes":[1.4232144E3,0E0,0E0],"parents":[2147483647,0,0],"right_children":[2,-1,-1],"split_conditions":[5E-1,-1.4151628E-1,4.942414E0],"split_indices":[12,0,0],"split_type":[0,0,0],"sum_hessian":[1.8731706E2,1.8322426E2,4.0928016E0],"tree_param":{"num_deleted":"0","num_feature":"36","num_nodes":"3","size_leaf_vector":"0"}},{"base_weights":[4.779177E-2,-4.4445702E-1,1.6721851E1,-4.1692832E-1,-5.030037E-1],"categories":[],"categories_nodes":[],"categories_segments":[],"categories_sizes":[],"default_left":[true,true,false,false,false],"id":2,"left_children":[1,3,-1,-1,-1],"loss_changes":[1.5530981E3,8.666229E-2,0E0,0E0,0E0],"parents":[2147483647,0,0,1,1],"right_children":[2,4,-1,-1,-1],"split_conditions":[5E-1,5E-1,5.016556E0,-1.250785E-1,-1.5090112E-1],"split_indices":[33,3,0,0,0],"split_type":[0,0,0,0,0],"sum_hessian":[1.8731706E2,1.8289113E2,4.4259367E0,1.2992265E2,5.2968468E1],"tree_param":{"num_deleted":"0","num_feature":"36","num_nodes":"5","size_leaf_vector":"0"}},{"base_weights":[-5.3101905E-2,1.2668285E-1,-5.030037E-1,2.2257271E-1,-4.850292E-1,2.607175E-1,-4.3719953E-1,2.9506728E-1,-4.2350996E-1,3.3182582E-1,-4.220145E-1,3.7209025E-1,-4.220145E-1],"categories":[],"categories_nodes":[],"categories_segments":[],"categories_sizes":[],"default_left":[true,true,false,true,false,true,false,true,false,true,false,false,false],"id":3,"left_children":[1,3,-1,5,-1,7,-1,9,-1,11,-1,-1,-1],"loss_changes":[1.5295839E1,8.047094E0,0E0,3.0759363E0,0E0,2.7546353E0,0E0,2.963791E0,0E0,3.2670956E0,0E0,0E0,0E0],"parents":[2147483647,0,0,1,1,3,3,5,5,7,7,9,9],"right_children":[2,4,-1,6,-1,8,-1,10,-1,12,-1,-1,-1],"split_conditions":[5E-1,5E-1,-1.5090112E-1,5E-1,-1.4550877E-1,5E-1,-1.3115987E-1,5E-1,-1.27053E-1,5E-1,-1.2660436E-1,1.1162708E-1,-1.2660436E-1],"split_indices":[3,25,0,22,0,11,0,21,0,35,0,0,0],"split_type":[0,0,0,0,0,0,0,0,0,0,0,0,0],"sum_hessian":[1.8731706E2,1.343486E2,5.2968468E1,1.1669244E2,1.7656157E1,1.10886375E2,5.8060675E0,1.06127304E2,4.759072E0,1.0146341E2,4.6638904E0,9.679952E1,4.6638904E0],"tree_param":{"num_deleted":"0","num_feature":"36","num_nodes":"13","size_leaf_vector":"0"}},{"base_weights":[1.593061E-2,-4.4997594E-1,1.6548561E1,-4.2472595E-1,-5.030037E-1],"categories":[],"categories_nodes":[],"categories_segments":[],"categories_sizes":[],"default_left":[true,true,false,false,false],"id":4,"left_children":[1,3,-1,-1,-1],"loss_changes":[1.4579889E3,3.2901764E-2,0E0,0E0,0E0],"parents":[2147483647,0,0,1,1],"right_children":[2,4,-1,-1,-1],"split_conditions":[5E-1,5E-1,4.9645686E0,-1.2741779E-1,-1.5090112E-1],"split_indices":[15,3,0,0,0],"split_type":[0,0,0,0,0],"sum_hessian":[1.8731706E2,1.8312907E2,4.187983E0,1.3016061E2,5.2968468E1],"tree_param":{"num_deleted":"0","num_feature":"36","num_nodes":"5","size_leaf_vector":"0"}},{"base_weights":[-3.186113E-2,-4.8258495E-1,1.6436743E1],"categories":[],"categories_nodes":[],"categories_segments":[],"categories_sizes":[],"default_left":[true,false,false],"id":5,"left_children":[1,-1,-1],"loss_changes":[1.4057705E3,0E0,0E0],"parents":[2147483647,0,0],"right_children":[2,-1,-1],"split_conditions":[5E-1,-1.447755E-1,4.931023E0],"split_indices":[28,0,0],"split_type":[0,0,0],"sum_hessian":[1.8731706E2,1.8327185E2,4.045211E0],"tree_param":{"num_deleted":"0","num_feature":"36","num_nodes":"3","size_leaf_vector":"0"}},{"base_weights":[-5.310163E-3,-4.5545113E-1,1.6436743E1,-5.087068E-1,-3.029257E-1,-1.4435114E-1,-4.898292E-1,-7.768015E-2,-4.172105E-1,1.5938548E-2,-4.1549376E-1,1.5482803E-1,-4.1279945E-1],"categories":[],"categories_nodes":[],"categories_segments":[],"categories_sizes":[],"default_left":[true,true,false,false,true,true,false,true,false,true,false,false,false],"id":6,"left_children":[1,3,-1,-1,5,7,-1,9,-1,11,-1,-1,-1],"loss_changes":[1.4012661E3,1.3427124E0,0E0,0E0,1.415978E0,4.870584E-1,0E0,7.7122605E-1,0E0,1.2485161E0,0E0,0E0,0E0],"parents":[2147483647,0,0,1,1,4,4,5,5,7,7,9,9],"right_children":[2,4,-1,-1,6,8,-1,10,-1,12,-1,-1,-1],"split_conditions":[5E-1,5E-1,4.931023E0,-1.5261205E-1,5E-1,5E-1,-1.4694877E-1,5E-1,-1.2516315E-1,5E-1,-1.2464813E-1,4.644841E-2,-1.2383984E-1],"split_indices":[23,3,0,0,22,30,0,1,0,20,0,0,0],"split_type":[0,0,0,0,0,0,0,0,0,0,0,0,0],"sum_hessian":[1.8731706E2,1.8327185E2,4.045211E0,1.3411064E2,4.9161213E1,2.7555025E1,2.1606186E1,2.317668E1,4.378346E0,1.8893515E1,4.2831645E0,1.4753122E1,4.1403923E0],"tree_param":{"num_deleted":"0","num_feature":"36","num_nodes":"13","size_leaf_vector":"0"}},{"base_weights":[2.1240804E-2,-5.09708E-1,1.69404E1],"categories":[],"categories_nodes":[],"categories_segments":[],"categories_sizes":[],"default_left":[true,false,false],"id":7,"left_children":[1,-1,-1],"loss_changes":[1.7003257E3,0E0,0E0],"parents":[2147483647,0,0],"right_children":[2,-1,-1],"split_conditions":[5E-1,-1.5291241E-1,5.08212E0],"split_indices":[11,0,0],"split_type":[0,0,0],"sum_hessian":[1.8731706E2,1.82558E2,4.759072E0],"tree_param":{"num_deleted":"0","num_feature":"36","num_nodes":"3","size_leaf_vector":"0"}},{"base_weights":[3.038517E-8,-4.6085122E-1,1.6511978E1],"categories":[],"categories_nodes":[],"categories_segments":[],"categories_sizes":[],"default_left":[true,false,false],"id":8,"left_children":[1,-1,-1],"loss_changes":[1.4406206E3,0E0,0E0],"parents":[2147483647,0,0],"right_children":[2,-1,-1],"split_conditions":[5E-1,-1.3825537E-1,4.9535937E0],"split_indices":[14,0,0],"split_type":[0,0,0],"sum_hessian":[1.8731706E2,1.8317667E2,4.1403923E0],"tree_param":{"num_deleted":"0","num_feature":"36","num_nodes":"3","size_leaf_vector":"0"}},{"base_weights":[5.310224E-3,-4.8253077E-1,1.6688421E1,-5.087068E-1,-4.018696E-1,-3.171729E-1,-4.898292E-1],"categories":[],"categories_nodes":[],"categories_segments":[],"categories_sizes":[],"default_left":[true,true,false,false,true,false,false],"id":9,"left_children":[1,3,-1,-1,5,-1,-1],"loss_changes":[1.5407097E3,1.8393326E-1,0E0,0E0,2.1585274E-1,0E0,0E0],"parents":[2147483647,0,0,1,1,4,4],"right_children":[2,4,-1,-1,6,-1,-1],"split_conditions":[5E-1,5E-1,5.0065265E0,-1.5261205E-1,5E-1,-9.515188E-2,-1.4694877E-1],"split_indices":[20,3,0,0,22,0,0],"split_type":[0,0,0,0,0,0,0],"sum_hessian":[1.8731706E2,1.8293872E2,4.378346E0,1.3411064E2,4.8828075E1,2.7221891E1,2.1606186E1],"tree_param":{"num_deleted":"0","num_feature":"36","num_nodes":"7","size_leaf_vector":"0"}},{"base_weights":[5.310224E-3,-4.8253077E-1,1.6688421E1],"categories":[],"categories_nodes":[],"categories_segments":[],"categories_sizes":[],"default_left":[true,false,false],"id":10,"left_children":[1,-1,-1],"loss_changes":[1.5407097E3,0E0,0E0],"parents":[2147483647,0,0],"right_children":[2,-1,-1],"split_conditions":[5E-1,-1.4475924E-1,5.0065265E0],"split_indices":[16,0,0],"split_type":[0,0,0],"sum_hessian":[1.8731706E2,1.8293872E2,4.378346E0],"tree_param":{"num_deleted":"0","num_feature":"36","num_nodes":"3","size_leaf_vector":"0"}},{"base_weights":[-5.310163E-3,-4.9340397E-1,1.6688421E1,-5.094919E-1,-2.7131245E-1,-1.5072604E-1,-4.249568E-1,1.4058183E-1,-4.1635978E-1],"categories":[],"categories_nodes":[],"categories_segments":[],"categories_sizes":[],"default_left":[true,true,false,false,true,true,false,false,false],"id":11,"left_children":[1,3,-1,-1,5,7,-1,-1,-1],"loss_changes":[1.5426616E3,5.189781E-1,0E0,0E0,2.057693E-1,8.0983454E-1,0E0,0E0,0E0],"parents":[2147483647,0,0,1,1,4,4,5,5],"right_children":[2,4,-1,-1,6,8,-1,-1,-1],"split_conditions":[5E-1,5E-1,5.0065265E0,-1.5284759E-1,5E-1,5E-1,-1.2748705E-1,4.217455E-2,-1.2490794E-1],"split_indices":[24,25,0,0,8,10,0,0,0],"split_type":[0,0,0,0,0,0,0,0,0],"sum_hessian":[1.8731706E2,1.8293872E2,4.378346E0,1.6937537E2,1.35633545E1,8.709102E0,4.8542533E0,4.378346E0,4.330755E0],"tree_param":{"num_deleted":"0","num_feature":"36","num_nodes":"9","size_leaf_vector":"0"}},{"base_weights":[-7.4342676E-2,-4.6643552E-1,1.5966321E1],"categories":[],"categories_nodes":[],"categories_segments":[],"categories_sizes":[],"default_left":[true,false,false],"id":12,"left_children":[1,-1,-1],"loss_changes":[1.1918542E3,0E0,0E0],"parents":[2147483647,0,0],"right_children":[2,-1,-1],"split_conditions":[5E-1,-1.3993067E-1,4.7898965E0],"split_indices":[19,0,0],"split_type":[0,0,0],"sum_hessian":[1.8731706E2,1.8379535E2,3.521713E0],"tree_param":{"num_deleted":"0","num_feature":"36","num_nodes":"3","size_leaf_vector":"0"}},{"base_weights":[-5.310163E-3,-4.8254627E-1,1.6619751E1],"categories":[],"categories_nodes":[],"categories_segments":[],"categories_sizes":[],"default_left":[true,false,false],"id":13,"left_children":[1,-1,-1],"loss_changes":[1.5021423E3,0E0,0E0],"parents":[2147483647,0,0],"right_children":[2,-1,-1],"split_conditions":[5E-1,-1.4476389E-1,4.9859257E0],"split_indices":[18,0,0],"split_type":[0,0,0],"sum_hessian":[1.8731706E2,1.830339E2,4.2831645E0],"tree_param":{"num_deleted":"0","num_feature":"36","num_nodes":"3","size_leaf_vector":"0"}},{"base_weights":[4.779177E-2,-4.7916016E-1,1.3684595E0,2.6242535E0,-4.898292E-1,3.1150277E0,-4.172105E-1,3.7705884E0,-4.1549376E-1,4.6772E0,-4.1279945E-1,5.931461E0,-4.0589035E-1],"categories":[],"categories_nodes":[],"categories_segments":[],"categories_sizes":[],"default_left":[true,false,true,true,false,true,false,true,false,true,false,false,false],"id":14,"left_children":[1,-1,3,5,-1,7,-1,9,-1,11,-1,-1,-1],"loss_changes":[1.317109E2,0E0,1.2722776E2,4.9605896E1,0E0,6.6334656E1,0E0,9.182086E1,0E0,1.2711514E2,0E0,0E0,0E0],"parents":[2147483647,0,0,2,2,3,3,5,5,7,7,9,9],"right_children":[2,-1,4,6,-1,8,-1,10,-1,12,-1,-1,-1],"split_conditions":[5E-1,-1.4374806E-1,5E-1,5E-1,-1.4694877E-1,5E-1,-1.2516315E-1,5E-1,-1.2464813E-1,5E-1,-1.2383984E-1,1.7794384E0,-1.2176711E-1],"split_indices":[3,0,22,30,0,1,0,20,0,23,0,0,0],"split_type":[0,0,0,0,0,0,0,0,0,0,0,0,0],"sum_hessian":[1.8731706E2,1.343486E2,5.2968468E1,3.1362284E1,2.1606186E1,2.6983936E1,4.378346E0,2.2700773E1,4.2831645E0,1.8560379E1,4.1403923E0,1.4753122E1,3.8072574E0],"tree_param":{"num_deleted":"0","num_feature":"36","num_nodes":"13","size_leaf_vector":"0"}},{"base_weights":[-2.1240743E-2,-4.9393684E-1,1.1646367E0,2.2843516E0,-4.898292E-1,2.7219448E0,-4.172105E-1,3.3064685E0,-4.1549376E-1,4.1148386E0,-4.1279945E-1,5.2331862E0,-4.0589035E-1],"categories":[],"categories_nodes":[],"categories_segments":[],"categories_sizes":[],"default_left":[true,false,true,true,false,true,false,true,false,true,false,false,false],"id":15,"left_children":[1,-1,3,5,-1,7,-1,9,-1,11,-1,-1,-1],"loss_changes":[1.0613821E2,0E0,1.0109716E2,3.939383E1,0E0,5.269374E1,0E0,7.2956055E1,0E0,1.0101645E2,0E0,0E0,0E0],"parents":[2147483647,0,0,2,2,3,3,5,5,7,7,9,9],"right_children":[2,-1,4,6,-1,8,-1,10,-1,12,-1,-1,-1],"split_conditions":[5E-1,-1.4818105E-1,5E-1,5E-1,-1.4694877E-1,5E-1,-1.2516315E-1,5E-1,-1.2464813E-1,5E-1,-1.2383984E-1,1.569956E0,-1.2176711E-1],"split_indices":[3,0,22,30,0,1,0,20,0,23,0,0,0],"split_type":[0,0,0,0,0,0,0,0,0,0,0,0,0],"sum_hessian":[1.8731706E2,1.343486E2,5.2968468E1,3.1362284E1,2.1606186E1,2.6983936E1,4.378346E0,2.2700773E1,4.2831645E0,1.8560379E1,4.1403923E0,1.4753122E1,3.8072574E0],"tree_param":{"num_deleted":"0","num_feature":"36","num_nodes":"13","size_leaf_vector":"0"}},{"base_weights":[-1.0620357E-2,-5.096413E-1,8.898999E0,1.6754702E1,-4.204679E-1],"categories":[],"categories_nodes":[],"categories_segments":[],"categories_sizes":[],"default_left":[true,false,true,false,false],"id":16,"left_children":[1,-1,3,-1,-1],"loss_changes":[8.4180927E2,0E0,7.422466E2,0E0,0E0],"parents":[2147483647,0,0,2,2],"right_children":[2,-1,4,-1,-1],"split_conditions":[5E-1,-1.528924E-1,5E-1,5.0264106E0,-1.2614039E-1],"split_indices":[2,0,7,0,0],"split_type":[0,0,0,0,0],"sum_hessian":[1.8731706E2,1.7827483E2,9.042236E0,4.4735274E0,4.568709E0],"tree_param":{"num_deleted":"0","num_feature":"36","num_nodes":"5","size_leaf_vector":"0"}},{"base_weights":[2.6550997E-2,-5.097073E-1,1.6969574E1],"categories":[],"categories_nodes":[],"categories_segments":[],"categories_sizes":[],"default_left":[true,false,false],"id":17,"left_children":[1,-1,-1],"loss_changes":[1.7196674E3,0E0,0E0],"parents":[2147483647,0,0],"right_children":[2,-1,-1],"split_conditions":[5E-1,-1.5291218E-1,5.0908723E0],"split_indices":[7,0,0],"split_type":[0,0,0],"sum_hessian":[1.8731706E2,1.825104E2,4.8066626E0],"tree_param":{"num_deleted":"0","num_feature":"36","num_nodes":"3","size_leaf_vector":"0"}},{"base_weights":[5.310224E-3,-4.8253077E-1,1.6688421E1,-5.087135E-1,-4.0133876E-1,-3.15512E-1,-4.898292E-1],"categories":[],"categories_nodes":[],"categories_segments":[],"categories_sizes":[],"default_left":[true,true,false,false,true,false,false],"id":18,"left_children":[1,3,-1,-1,5,-1,-1],"loss_changes":[1.5407097E3,1.8685532E-1,0E0,0E0,2.2208309E-1,0E0,0E0],"parents":[2147483647,0,0,1,1,4,4],"right_children":[2,4,-1,-1,6,-1,-1],"split_conditions":[5E-1,5E-1,5.0065265E0,-1.5261406E-1,5E-1,-9.465361E-2,-1.4694877E-1],"split_indices":[30,3,0,0,22,0,0],"split_type":[0,0,0,0,0,0,0],"sum_hessian":[1.8731706E2,1.8293872E2,4.378346E0,1.343486E2,4.8590122E1,2.6983936E1,2.1606186E1],"tree_param":{"num_deleted":"0","num_feature":"36","num_nodes":"7","size_leaf_vector":"0"}},{"base_weights":[3.038517E-8,2.0056614E-1,-5.030037E-1,3.0753994E-1,-4.850292E-1,3.500939E-1,-4.3719953E-1,3.8841414E-1,-4.2350996E-1,4.2942163E-1,-4.220145E-1,4.7434023E-1,-4.220145E-1],"categories":[],"categories_nodes":[],"categories_segments":[],"categories_sizes":[],"default_left":[true,true,false,true,false,true,false,true,false,true,false,false,false],"id":19,"left_children":[1,3,-1,5,-1,7,-1,9,-1,11,-1,-1,-1],"loss_changes":[1.9099348E1,1.0075731E1,0E0,3.8829231E0,0E0,3.4813356E0,0E0,3.7414513E0,0E0,4.118923E0,0E0,0E0,0E0],"parents":[2147483647,0,0,1,1,3,3,5,5,7,7,9,9],"right_children":[2,4,-1,6,-1,8,-1,10,-1,12,-1,-1,-1],"split_conditions":[5E-1,5E-1,-1.5090112E-1,5E-1,-1.4550877E-1,5E-1,-1.3115987E-1,5E-1,-1.27053E-1,5E-1,-1.2660436E-1,1.4230208E-1,-1.2660436E-1],"split_indices":[3,25,0,22,0,11,0,21,0,35,0,0,0],"split_type":[0,0,0,0,0,0,0,0,0,0,0,0,0],"sum_hessian":[1.8731706E2,1.343486E2,5.2968468E1,1.1669244E2,1.7656157E1,1.10886375E2,5.8060675E0,1.06127304E2,4.759072E0,1.0146341E2,4.6638904E0,9.679952E1,4.6638904E0],"tree_param":{"num_deleted":"0","num_feature":"36","num_nodes":"13","size_leaf_vector":"0"}},{"base_weights":[1.593061E-2,-5.097087E-1,1.691074E1],"categories":[],"categories_nodes":[],"categories_segments":[],"categories_sizes":[],"default_left":[true,false,false],"id":20,"left_children":[1,-1,-1],"loss_changes":[1.6809834E3,0E0,0E0],"parents":[2147483647,0,0],"right_children":[2,-1,-1],"split_conditions":[5E-1,-1.5291262E-1,5.073222E0],"split_indices":[4,0,0],"split_type":[0,0,0],"sum_hessian":[1.8731706E2,1.8260559E2,4.711481E0],"tree_param":{"num_deleted":"0","num_feature":"36","num_nodes":"3","size_leaf_vector":"0"}},{"base_weights":[3.038517E-8,2.0056614E-1,-5.030037E-1,3.0753994E-1,-4.850292E-1,3.500939E-1,-4.3719953E-1,3.8841414E-1,-4.2350996E-1,4.2942163E-1,-4.220145E-1,4.7434023E-1,-4.220145E-1],"categories":[],"categories_nodes":[],"categories_segments":[],"categories_sizes":[],"default_left":[true,true,false,true,false,true,false,true,false,true,false,false,false],"id":21,"left_children":[1,3,-1,5,-1,7,-1,9,-1,11,-1,-1,-1],"loss_changes":[1.9099348E1,1.0075731E1,0E0,3.8829231E0,0E0,3.4813356E0,0E0,3.7414513E0,0E0,4.118923E0,0E0,0E0,0E0],"parents":[2147483647,0,0,1,1,3,3,5,5,7,7,9,9],"right_children":[2,4,-1,6,-1,8,-1,10,-1,12,-1,-1,-1],"split_conditions":[5E-1,5E-1,-1.5090112E-1,5E-1,-1.4550877E-1,5E-1,-1.3115987E-1,5E-1,-1.27053E-1,5E-1,-1.2660436E-1,1.4230208E-1,-1.2660436E-1],"split_indices":[3,25,0,22,0,11,0,21,0,35,0,0,0],"split_type":[0,0,0,0,0,0,0,0,0,0,0,0,0],"sum_hessian":[1.8731706E2,1.343486E2,5.2968468E1,1.1669244E2,1.7656157E1,1.10886375E2,5.8060675E0,1.06127304E2,4.759072E0,1.0146341E2,4.6638904E0,9.679952E1,4.6638904E0],"tree_param":{"num_deleted":"0","num_feature":"36","num_nodes":"13","size_leaf_vector":"0"}},{"base_weights":[-2.6550936E-2,1.636245E-1,-5.030037E-1,2.6505634E-1,-4.850292E-1,3.054057E-1,-4.3719953E-1,3.4174073E-1,-4.2350996E-1,3.8062373E-1,-4.220145E-1,4.2321524E-1,-4.220145E-1],"categories":[],"categories_nodes":[],"categories_segments":[],"categories_sizes":[],"default_left":[true,true,false,true,false,true,false,true,false,true,false,false,false],"id":22,"left_children":[1,3,-1,5,-1,7,-1,9,-1,11,-1,-1,-1],"loss_changes":[1.714564E1,9.033704E0,0E0,3.4684067E0,0E0,3.108059E0,0E0,3.341998E0,0E0,3.6813736E0,0E0,0E0,0E0],"parents":[2147483647,0,0,1,1,3,3,5,5,7,7,9,9],"right_children":[2,4,-1,6,-1,8,-1,10,-1,12,-1,-1,-1],"split_conditions":[5E-1,5E-1,-1.5090112E-1,5E-1,-1.4550877E-1,5E-1,-1.3115987E-1,5E-1,-1.27053E-1,5E-1,-1.2660436E-1,1.2696458E-1,-1.2660436E-1],"split_indices":[3,25,0,22,0,11,0,21,0,35,0,0,0],"split_type":[0,0,0,0,0,0,0,0,0,0,0,0,0],"sum_hessian":[1.8731706E2,1.343486E2,5.2968468E1,1.1669244E2,1.7656157E1,1.10886375E2,5.8060675E0,1.06127304E2,4.759072E0,1.0146341E2,4.6638904E0,9.679952E1,4.6638904E0],"tree_param":{"num_deleted":"0","num_feature":"36","num_nodes":"13","size_leaf_vector":"0"}},{"base_weights":[-1.0620357E-2,-5.097123E-1,1.6754702E1],"categories":[],"categories_nodes":[],"categories_segments":[],"categories_sizes":[],"default_left":[true,false,false],"id":23,"left_children":[1,-1,-1],"loss_changes":[1.5842714E3,0E0,0E0],"parents":[2147483647,0,0],"right_children":[2,-1,-1],"split_conditions":[5E-1,-1.5291369E-1,5.0264106E0],"split_indices":[1,0,0],"split_type":[0,0,0],"sum_hessian":[1.8731706E2,1.8284354E2,4.4735274E0],"tree_param":{"num_deleted":"0","num_feature":"36","num_nodes":"3","size_leaf_vector":"0"}},{"base_weights":[4.248158E-2,-4.7703913E-1,1.688058E1],"categories":[],"categories_nodes":[],"categories_segments":[],"categories_sizes":[],"default_left":[true,false,false],"id":24,"left_children":[1,-1,-1],"loss_changes":[1.6554017E3,0E0,0E0],"parents":[2147483647,0,0],"right_children":[2,-1,-1],"split_conditions":[5E-1,-1.4311175E-1,5.0641747E0],"split_indices":[35,0,0],"split_type":[0,0,0],"sum_hessian":[1.8731706E2,1.8265317E2,4.6638904E0],"tree_param":{"num_deleted":"0","num_feature":"36","num_nodes":"3","size_leaf_vector":"0"}},{"base_weights":[2.6550997E-2,-5.097073E-1,1.6969574E1],"categories":[],"categories_nodes":[],"categories_segments":[],"categories_sizes":[],"default_left":[true,false,false],"id":25,"left_children":[1,-1,-1],"loss_changes":[1.7196674E3,0E0,0E0],"parents":[2147483647,0,0],"right_children":[2,-1,-1],"split_conditions":[5E-1,-1.5291218E-1,5.0908723E0],"split_indices":[5,0,0],"split_type":[0,0,0],"sum_hessian":[1.8731706E2,1.825104E2,4.8066626E0],"tree_param":{"num_deleted":"0","num_feature":"36","num_nodes":"3","size_leaf_vector":"0"}},{"base_weights":[3.186119E-2,-5.097065E-1,1.6998274E1],"categories":[],"categories_nodes":[],"categories_segments":[],"categories_sizes":[],"default_left":[true,false,false],"id":26,"left_children":[1,-1,-1],"loss_changes":[1.7390082E3,0E0,0E0],"parents":[2147483647,0,0],"right_children":[2,-1,-1],"split_conditions":[5E-1,-1.5291196E-1,5.0994825E0],"split_indices":[9,0,0],"split_type":[0,0,0],"sum_hessian":[1.8731706E2,1.8246281E2,4.8542533E0],"tree_param":{"num_deleted":"0","num_feature":"36","num_nodes":"3","size_leaf_vector":"0"}},{"base_weights":[-1.0620357E-2,-5.097123E-1,1.6754702E1],"categories":[],"categories_nodes":[],"categories_segments":[],"categories_sizes":[],"default_left":[true,false,false],"id":27,"left_children":[1,-1,-1],"loss_changes":[1.5842714E3,0E0,0E0],"parents":[2147483647,0,0],"right_children":[2,-1,-1],"split_conditions":[5E-1,-1.5291369E-1,5.0264106E0],"split_indices":[6,0,0],"split_type":[0,0,0],"sum_hessian":[1.8731706E2,1.8284354E2,4.4735274E0],"tree_param":{"num_deleted":"0","num_feature":"36","num_nodes":"3","size_leaf_vector":"0"}},{"base_weights":[3.038517E-8,-4.8253852E-1,1.6654392E1],"categories":[],"categories_nodes":[],"categories_segments":[],"categories_sizes":[],"default_left":[true,false,false],"id":28,"left_children":[1,-1,-1],"loss_changes":[1.521425E3,0E0,0E0],"parents":[2147483647,0,0],"right_children":[2,-1,-1],"split_conditions":[5E-1,-1.4476156E-1,4.996318E0],"split_indices":[31,0,0],"split_type":[0,0,0],"sum_hessian":[1.8731706E2,1.8298631E2,4.330755E0],"tree_param":{"num_deleted":"0","num_feature":"36","num_nodes":"3","size_leaf_vector":"0"}},{"base_weights":[1.593061E-2,2.2273113E-1,-5.030037E-1,3.330301E-1,-4.850292E-1,3.769068E-1,-4.3719953E-1,4.1641822E-1,-4.2350996E-1,4.5870036E-1,-4.220145E-1,5.0501525E-1,-4.220145E-1],"categories":[],"categories_nodes":[],"categories_segments":[],"categories_sizes":[],"default_left":[true,true,false,true,false,true,false,true,false,true,false,false,false],"id":29,"left_children":[1,3,-1,5,-1,7,-1,9,-1,11,-1,-1,-1],"loss_changes":[2.0321447E1,1.072755E1,0E0,4.1422157E0,0E0,3.7148304E0,0E0,3.9913216E0,0E0,4.392626E0,0E0,0E0,0E0],"parents":[2147483647,0,0,1,1,3,3,5,5,7,7,9,9],"right_children":[2,4,-1,6,-1,8,-1,10,-1,12,-1,-1,-1],"split_conditions":[5E-1,5E-1,-1.5090112E-1,5E-1,-1.4550877E-1,5E-1,-1.3115987E-1,5E-1,-1.27053E-1,5E-1,-1.2660436E-1,1.5150458E-1,-1.2660436E-1],"split_indices":[3,25,0,22,0,11,0,21,0,35,0,0,0],"split_type":[0,0,0,0,0,0,0,0,0,0,0,0,0],"sum_hessian":[1.8731706E2,1.343486E2,5.2968468E1,1.1669244E2,1.7656157E1,1.10886375E2,5.8060675E0,1.06127304E2,4.759072E0,1.0146341E2,4.6638904E0,9.679952E1,4.6638904E0],"tree_param":{"num_deleted":"0","num_feature":"36","num_nodes":"13","size_leaf_vector":"0"}},{"base_weights":[1.0620417E-2,2.153428E-1,-5.030037E-1,3.245334E-1,-4.850292E-1,3.679692E-1,-4.3719953E-1,4.0708354E-1,-4.2350996E-1,4.4894078E-1,-4.220145E-1,4.9479023E-1,-4.220145E-1],"categories":[],"categories_nodes":[],"categories_segments":[],"categories_sizes":[],"default_left":[true,true,false,true,false,true,false,true,false,true,false,false,false],"id":30,"left_children":[1,3,-1,5,-1,7,-1,9,-1,11,-1,-1,-1],"loss_changes":[1.9909925E1,1.05080595E1,0E0,4.054903E0,0E0,3.6362047E0,0E0,3.9071808E0,0E0,4.3004627E0,0E0,0E0,0E0],"parents":[2147483647,0,0,1,1,3,3,5,5,7,7,9,9],"right_children":[2,4,-1,6,-1,8,-1,10,-1,12,-1,-1,-1],"split_conditions":[5E-1,5E-1,-1.5090112E-1,5E-1,-1.4550877E-1,5E-1,-1.3115987E-1,5E-1,-1.27053E-1,5E-1,-1.2660436E-1,1.4843707E-1,-1.2660436E-1],"split_indices":[3,25,0,22,0,11,0,21,0,35,0,0,0],"split_type":[0,0,0,0,0,0,0,0,0,0,0,0,0],"sum_hessian":[1.8731706E2,1.343486E2,5.2968468E1,1.1669244E2,1.7656157E1,1.10886375E2,5.8060675E0,1.06127304E2,4.759072E0,1.0146341E2,4.6638904E0,9.679952E1,4.6638904E0],"tree_param":{"num_deleted":"0","num_feature":"36","num_nodes":"13","size_leaf_vector":"0"}},{"base_weights":[-2.6550936E-2,-5.097145E-1,1.6654392E1],"categories":[],"categories_nodes":[],"categories_segments":[],"categories_sizes":[],"default_left":[true,false,false],"id":31,"left_children":[1,-1,-1],"loss_changes":[1.5262535E3,0E0,0E0],"parents":[2147483647,0,0],"right_children":[2,-1,-1],"split_conditions":[5E-1,-1.5291435E-1,4.996318E0],"split_indices":[10,0,0],"split_type":[0,0,0],"sum_hessian":[1.8731706E2,1.8298631E2,4.330755E0],"tree_param":{"num_deleted":"0","num_feature":"36","num_nodes":"3","size_leaf_vector":"0"}},{"base_weights":[-3.7171323E-2,-5.096511E-1,8.986302E0,-4.1371402E-1,1.658448E1],"categories":[],"categories_nodes":[],"categories_segments":[],"categories_sizes":[],"default_left":[true,false,true,false,false],"id":32,"left_children":[1,-1,3,-1,-1],"loss_changes":[8.074525E2,0E0,6.7991986E2,0E0,0E0],"parents":[2147483647,0,0,2,2],"right_children":[2,-1,4,-1,-1],"split_conditions":[5E-1,-1.5289535E-1,5E-1,-1.2411421E-1,4.975344E0],"split_indices":[0,0,25,0,0],"split_type":[0,0,0,0,0],"sum_hessian":[1.8731706E2,1.7889351E2,8.423557E0,4.187983E0,4.235574E0],"tree_param":{"num_deleted":"0","num_feature":"36","num_nodes":"5","size_leaf_vector":"0"}},{"base_weights":[3.186119E-2,-5.097065E-1,1.6998274E1],"categories":[],"categories_nodes":[],"categories_segments":[],"categories_sizes":[],"default_left":[true,false,false],"id":33,"left_children":[1,-1,-1],"loss_changes":[1.7390082E3,0E0,0E0],"parents":[2147483647,0,0],"right_children":[2,-1,-1],"split_conditions":[5E-1,-1.5291196E-1,5.0994825E0],"split_indices":[8,0,0],"split_type":[0,0,0],"sum_hessian":[1.8731706E2,1.8246281E2,4.8542533E0],"tree_param":{"num_deleted":"0","num_feature":"36","num_nodes":"3","size_leaf_vector":"0"}},{"base_weights":[2.1240804E-2,-4.825075E-1,1.6786985E1],"categories":[],"categories_nodes":[],"categories_segments":[],"categories_sizes":[],"default_left":[true,false,false],"id":34,"left_children":[1,-1,-1],"loss_changes":[1.5985721E3,0E0,0E0],"parents":[2147483647,0,0],"right_children":[2,-1,-1],"split_conditions":[5E-1,-1.4475225E-1,5.0360956E0],"split_indices":[26,0,0],"split_type":[0,0,0],"sum_hessian":[1.8731706E2,1.8279594E2,4.521118E0],"tree_param":{"num_deleted":"0","num_feature":"36","num_nodes":"3","size_leaf_vector":"0"}},{"base_weights":[-1.0620357E-2,-4.8255402E-1,1.658448E1,-5.096466E-1,4.946202E-1],"categories":[],"categories_nodes":[],"categories_segments":[],"categories_sizes":[],"default_left":[true,true,false,false,false],"id":35,"left_children":[1,3,-1,-1,-1],"loss_changes":[1.4828619E3,5.1254807E0,0E0,0E0,0E0],"parents":[2147483647,0,0,1,1],"right_children":[2,4,-1,-1,-1],"split_conditions":[5E-1,5E-1,4.975344E0,-1.5289399E-1,1.4838606E-1],"split_indices":[27,0,0,0,0],"split_type":[0,0,0,0,0],"sum_hessian":[1.8731706E2,1.830815E2,4.235574E0,1.7860796E2,4.4735274E0],"tree_param":{"num_deleted":"0","num_feature":"36","num_nodes":"5","size_leaf_vector":"0"}},{"base_weights":[3.7171382E-2,-4.824842E-1,1.688058E1],"categories":[],"categories_nodes":[],"categories_segments":[],"categories_sizes":[],"default_left":[true,false,false],"id":36,"left_children":[1,-1,-1],"loss_changes":[1.6564408E3,0E0,0E0],"parents":[2147483647,0,0],"right_children":[2,-1,-1],"split_conditions":[5E-1,-1.4474526E-1,5.0641747E0],"split_indices":[21,0,0],"split_type":[0,0,0],"sum_hessian":[1.8731706E2,1.8265317E2,4.6638904E0],"tree_param":{"num_deleted":"0","num_feature":"36","num_nodes":"3","size_leaf_vector":"0"}},{"base_weights":[5.310224E-3,-4.5000824E-1,1.6474712E1,-4.2478958E-1,-5.030037E-1],"categories":[],"categories_nodes":[],"categories_segments":[],"categories_sizes":[],"default_left":[true,true,false,false,false],"id":37,"left_children":[1,3,-1,-1,-1],"loss_changes":[1.41957E3,3.2539368E-2,0E0,0E0,0E0],"parents":[2147483647,0,0,1,1],"right_children":[2,4,-1,-1,-1],"split_conditions":[5E-1,5E-1,4.942414E0,-1.2743688E-1,-1.5090112E-1],"split_indices":[17,3,0,0,0],"split_type":[0,0,0,0,0],"sum_hessian":[1.8731706E2,1.8322426E2,4.0928016E0,1.302558E2,5.2968468E1],"tree_param":{"num_deleted":"0","num_feature":"36","num_nodes":"5","size_leaf_vector":"0"}},{"base_weights":[-5.310163E-3,-4.8254627E-1,1.6619751E1],"categories":[],"categories_nodes":[],"categories_segments":[],"categories_sizes":[],"default_left":[true,false,false],"id":38,"left_children":[1,-1,-1],"loss_changes":[1.5021423E3,0E0,0E0],"parents":[2147483647,0,0],"right_children":[2,-1,-1],"split_conditions":[5E-1,-1.4476389E-1,4.9859257E0],"split_indices":[29,0,0],"split_type":[0,0,0],"sum_hessian":[1.8731706E2,1.830339E2,4.2831645E0],"tree_param":{"num_deleted":"0","num_feature":"36","num_nodes":"3","size_leaf_vector":"0"}},{"base_weights":[-5.8412097E-2,-4.88037E-1,1.6277418E1],"categories":[],"categories_nodes":[],"categories_segments":[],"categories_sizes":[],"default_left":[true,false,false],"id":39,"left_children":[1,-1,-1],"loss_changes":[1.3296057E3,0E0,0E0],"parents":[2147483647,0,0],"right_children":[2,-1,-1],"split_conditions":[5E-1,-1.464111E-1,4.8832254E0],"split_indices":[34,0,0],"split_type":[0,0,0],"sum_hessian":[1.8731706E2,1.8346222E2,3.8548481E0],"tree_param":{"num_deleted":"0","num_feature":"36","num_nodes":"3","size_leaf_vector":"0"}},{"base_weights":[1.593061E-2,-4.8251528E-1,1.6754702E1,-5.086934E-1,-4.027085E-1,-3.1977287E-1,-4.898292E-1],"categories":[],"categories_nodes":[],"categories_segments":[],"categories_sizes":[],"default_left":[true,true,false,false,true,false,false],"id":40,"left_children":[1,3,-1,-1,5,-1,-1],"loss_changes":[1.5792836E3,1.7923355E-1,0E0,0E0,2.0614624E-1,0E0,0E0],"parents":[2147483647,0,0,1,1,4,4],"right_children":[2,4,-1,-1,6,-1,-1],"split_conditions":[5E-1,5E-1,5.0264106E0,-1.5260802E-1,5E-1,-9.5931865E-2,-1.4694877E-1],"split_indices":[32,3,0,0,22,0,0],"split_type":[0,0,0,0,0,0,0],"sum_hessian":[1.8731706E2,1.8284354E2,4.4735274E0,1.3363474E2,4.92088E1,2.7602615E1,2.1606186E1],"tree_param":{"num_deleted":"0","num_feature":"36","num_nodes":"7","size_leaf_vector":"0"}},{"base_weights":[-6.3231006E-2,-3.4110585E-1,6.147576E-1,-2.901857E-1,-4.7676745E-1],"categories":[],"categories_nodes":[],"categories_segments":[],"categories_sizes":[],"default_left":[true,true,false,false,false],"id":41,"left_children":[1,3,-1,-1,-1],"loss_changes":[1.8365753E1,3.382883E-1,0E0,0E0,0E0],"parents":[2147483647,0,0,1,1],"right_children":[2,4,-1,-1,-1],"split_conditions":[5E-1,5E-1,1.8442729E-1,-8.705571E-2,-1.4303024E-1],"split_indices":[13,3,0,0,0],"split_type":[0,0,0,0,0],"sum_hessian":[9.537178E1,6.799911E1,2.737267E1,5.172378E1,1.6275324E1],"tree_param":{"num_deleted":"0","num_feature":"36","num_nodes":"5","size_leaf_vector":"0"}},{"base_weights":[-9.90841E-2,-3.9809087E-1,6.077377E-1,-3.639671E-1,-4.7707677E-1],"categories":[],"categories_nodes":[],"categories_segments":[],"categories_sizes":[],"default_left":[true,true,false,false,false],"id":42,"left_children":[1,3,-1,-1,-1],"loss_changes":[2.0640766E1,1.0800362E-2,0E0,0E0,0E0],"parents":[2147483647,0,0,1,1],"right_children":[2,4,-1,-1,-1],"split_conditions":[5E-1,5E-1,1.8232132E-1,-1.0919013E-1,-1.4312303E-1],"split_indices":[12,3,0,0,0],"split_type":[0,0,0,0,0],"sum_hessian":[9.551934E1,6.7430855E1,2.8088484E1,5.100395E1,1.642691E1],"tree_param":{"num_deleted":"0","num_feature":"36","num_nodes":"5","size_leaf_vector":"0"}},{"base_weights":[-4.6624746E-2,-3.2688284E-1,5.9944254E-1,-2.7167112E-1,-4.7676745E-1,-2.5469586E-1,-3.938216E-1],"categories":[],"categories_nodes":[],"categories_segments":[],"categories_sizes":[],"default_left":[true,true,false,true,false,false,false],"id":43,"left_children":[1,3,-1,5,-1,-1,-1],"loss_changes":[1.7965345E1,4.4225264E-1,0E0,9.21607E-3,0E0,0E0,0E0],"parents":[2147483647,0,0,1,1,3,3],"right_children":[2,4,-1,6,-1,-1,-1],"split_conditions":[5E-1,5E-1,1.7983277E-1,5E-1,-1.4303024E-1,-7.640876E-2,-1.1814649E-1],"split_indices":[33,3,0,25,0,0,0],"split_type":[0,0,0,0,0,0,0],"sum_hessian":[9.713791E1,6.8093575E1,2.9044329E1,5.1818253E1,1.6275324E1,4.8204388E1,3.6138635E0],"tree_param":{"num_deleted":"0","num_feature":"36","num_nodes":"7","size_leaf_vector":"0"}},{"base_weights":[5.491054E-1,8.11626E-1,-4.7676745E-1,8.8684845E-1,-3.920331E-1,9.169309E-1,-2.866904E-1,9.4345814E-1,-2.6467928E-1,9.7084254E-1,-2.6401502E-1,9.992012E-1,-2.6366737E-1],"categories":[],"categories_nodes":[],"categories_segments":[],"categories_sizes":[],"default_left":[true,true,false,true,false,true,false,true,false,true,false,false,false],"id":44,"left_children":[1,3,-1,5,-1,7,-1,9,-1,11,-1,-1,-1],"loss_changes":[2.2387613E1,6.2706223E0,0E0,2.447258E0,0E0,2.148178E0,0E0,2.22229E0,0E0,2.3062859E0,0E0,0E0,0E0],"parents":[2147483647,0,0,1,1,3,3,5,5,7,7,9,9],"right_children":[2,4,-1,6,-1,8,-1,10,-1,12,-1,-1,-1],"split_conditions":[5E-1,5E-1,-1.4303024E-1,5E-1,-1.1760993E-1,5E-1,-8.6007126E-2,5E-1,-7.940379E-2,5E-1,-7.920451E-2,2.9976037E-1,-7.9100214E-2],"split_indices":[3,25,0,0,0,26,0,33,0,16,0,0,0],"split_type":[0,0,0,0,0,0,0,0,0,0,0,0,0],"sum_hessian":[8.0691826E1,6.4416504E1,1.6275324E1,6.087532E1,3.5411816E0,5.956704E1,1.3082805E0,5.845624E1,1.1107978E0,5.7351532E1,1.1047094E0,5.624999E1,1.1015407E0],"tree_param":{"num_deleted":"0","num_feature":"36","num_nodes":"13","size_leaf_vector":"0"}},{"base_weights":[-5.918668E-2,-3.4107903E-1,6.0515887E-1,-2.9013836E-1,-4.7676745E-1],"categories":[],"categories_nodes":[],"categories_segments":[],"categories_sizes":[],"default_left":[true,true,false,false,false],"id":45,"left_children":[1,3,-1,-1,-1],"loss_changes":[1.8437075E1,3.385105E-1,0E0,0E0,0E0],"parents":[2147483647,0,0,1,1],"right_children":[2,4,-1,-1,-1],"split_conditions":[5E-1,5E-1,1.8154767E-1,-8.704151E-2,-1.4303024E-1],"split_indices":[15,3,0,0,0],"split_type":[0,0,0,0,0],"sum_hessian":[9.634761E1,6.7986465E1,2.8361143E1,5.171114E1,1.6275324E1],"tree_param":{"num_deleted":"0","num_feature":"36","num_nodes":"5","size_leaf_vector":"0"}},{"base_weights":[-1.19574554E-1,-4.270394E-1,6.090744E-1],"categories":[],"categories_nodes":[],"categories_segments":[],"categories_sizes":[],"default_left":[true,false,false],"id":46,"left_children":[1,-1,-1],"loss_changes":[2.1804668E1,0E0,0E0],"parents":[2147483647,0,0],"right_children":[2,-1,-1],"split_conditions":[5E-1,-1.2811182E-1,1.8272233E-1],"split_indices":[28,0,0],"split_type":[0,0,0],"sum_hessian":[9.516653E1,6.721713E1,2.7949394E1],"tree_param":{"num_deleted":"0","num_feature":"36","num_nodes":"3","size_leaf_vector":"0"}},{"base_weights":[-8.114388E-2,-3.5734957E-1,6.032845E-1,-4.984364E-1,6.0752552E-2,2.1812694E-1,-4.0254226E-1],"categories":[],"categories_nodes":[],"categories_segments":[],"categories_sizes":[],"default_left":[true,true,false,false,true,false,false],"id":47,"left_children":[1,3,-1,-1,5,-1,-1],"loss_changes":[1.854683E1,4.142727E0,0E0,0E0,1.4352748E0,0E0,0E0],"parents":[2147483647,0,0,1,1,4,4],"right_children":[2,4,-1,-1,6,-1,-1],"split_conditions":[5E-1,5E-1,1.8098535E-1,-1.4953092E-1,5E-1,6.5438084E-2,-1.2076268E-1],"split_indices":[23,3,0,0,22,0,0],"split_type":[0,0,0,0,0,0,0],"sum_hessian":[9.596865E1,6.8715805E1,2.7252842E1,5.1234722E1,1.7481085E1,1.3443657E1,4.037428E0],"tree_param":{"num_deleted":"0","num_feature":"36","num_nodes":"7","size_leaf_vector":"0"}},{"base_weights":[-1.6664878E-1,-5.0021476E-1,5.87417E-1],"categories":[],"categories_nodes":[],"categories_segments":[],"categories_sizes":[],"default_left":[true,false,false],"id":48,"left_children":[1,-1,-1],"loss_changes":[2.463697E1,0E0,0E0],"parents":[2147483647,0,0],"right_children":[2,-1,-1],"split_conditions":[5E-1,-1.5006444E-1,1.7622511E-1],"split_indices":[11,0,0],"split_type":[0,0,0],"sum_hessian":[9.5779976E1,6.6638596E1,2.9141382E1],"tree_param":{"num_deleted":"0","num_feature":"36","num_nodes":"3","size_leaf_vector":"0"}},{"base_weights":[-7.874396E-2,-3.693244E-1,6.0644126E-1,-3.2610232E-1,-4.7718388E-1],"categories":[],"categories_nodes":[],"categories_segments":[],"categories_sizes":[],"default_left":[true,true,false,false,false],"id":49,"left_children":[1,3,-1,-1,-1],"loss_changes":[1.9511345E1,1.6440773E-1,0E0,0E0,0E0],"parents":[2147483647,0,0,1,1],"right_children":[2,4,-1,-1,-1],"split_conditions":[5E-1,5E-1,1.8193239E-1,-9.78307E-2,-1.4315517E-1],"split_indices":[14,3,0,0,0],"split_type":[0,0,0,0,0],"sum_hessian":[9.587209E1,6.764534E1,2.822675E1,5.116544E1,1.6479904E1],"tree_param":{"num_deleted":"0","num_feature":"36","num_nodes":"5","size_leaf_vector":"0"}},{"base_weights":[-1.2290752E-1,-4.2723617E-1,5.950445E-1,-4.9843672E-1,-1.8513267E-1,-8.73229E-2,-4.0254226E-1],"categories":[],"categories_nodes":[],"categories_segments":[],"categories_sizes":[],"default_left":[true,true,false,false,true,false,false],"id":50,"left_children":[1,3,-1,-1,5,-1,-1],"loss_changes":[2.1342085E1,1.0861893E0,0E0,0E0,3.2905722E-1,0E0,0E0],"parents":[2147483647,0,0,1,1,4,4],"right_children":[2,4,-1,-1,6,-1,-1],"split_conditions":[5E-1,5E-1,1.7851335E-1,-1.4953102E-1,5E-1,-2.6196871E-2,-1.2076268E-1],"split_indices":[20,3,0,0,22,0,0],"split_type":[0,0,0,0,0,0,0],"sum_hessian":[9.551487E1,6.7364876E1,2.8149994E1,5.1237568E1,1.6127302E1,1.2089875E1,4.037428E0],"tree_param":{"num_deleted":"0","num_feature":"36","num_nodes":"7","size_leaf_vector":"0"}},{"base_weights":[-1.1487326E-1,-4.2702475E-1,6.0058033E-1],"categories":[],"categories_nodes":[],"categories_segments":[],"categories_sizes":[],"default_left":[true,false,false],"id":51,"left_children":[1,-1,-1],"loss_changes":[2.1946054E1,0E0,0E0],"parents":[2147483647,0,0],"right_children":[2,-1,-1],"split_conditions":[5E-1,-1.2810743E-1,1.8017411E-1],"split_indices":[16,0,0],"split_type":[0,0,0],"sum_hessian":[9.6119064E1,6.720204E1,2.8917027E1],"tree_param":{"num_deleted":"0","num_feature":"36","num_nodes":"3","size_leaf_vector":"0"}},{"base_weights":[-1.4204066E-1,-4.6845472E-1,5.84493E-1,-5.001051E-1,4.0607536E-1,6.2272096E-1,-2.5472784E-1],"categories":[],"categories_nodes":[],"categories_segments":[],"categories_sizes":[],"default_left":[true,true,true,false,false,false,false],"id":52,"left_children":[1,3,5,-1,-1,-1,-1],"loss_changes":[2.3052711E1,2.0529165E0,1.1281719E0,0E0,0E0,0E0,0E0],"parents":[2147483647,0,0,1,1,2,2],"right_children":[2,4,6,-1,-1,-1,-1],"split_conditions":[5E-1,5E-1,5E-1,-1.5003154E-1,1.2182261E-1,1.8681629E-1,-7.6418355E-2],"split_indices":[25,24,0,0,0,0,0],"split_type":[0,0,0,0,0,0,0],"sum_hessian":[9.505241E1,6.583124E1,2.9221169E1,6.3945126E1,1.886114E0,2.8194822E1,1.0263468E0],"tree_param":{"num_deleted":"0","num_feature":"36","num_nodes":"7","size_leaf_vector":"0"}},{"base_weights":[-9.665209E-2,-3.837229E-1,6.2688184E-1,-3.4507558E-1,-4.7712886E-1],"categories":[],"categories_nodes":[],"categories_segments":[],"categories_sizes":[],"default_left":[true,true,false,false,false],"id":53,"left_children":[1,3,-1,-1,-1],"loss_changes":[1.9951607E1,8.285713E-2,0E0,0E0,0E0],"parents":[2147483647,0,0,1,1],"right_children":[2,4,-1,-1,-1],"split_conditions":[5E-1,5E-1,1.8806456E-1,-1.0352268E-1,-1.4313866E-1],"split_indices":[19,3,0,0,0],"split_type":[0,0,0,0,0],"sum_hessian":[9.3899086E1,6.75625E1,2.6336582E1,5.1109844E1,1.6452656E1],"tree_param":{"num_deleted":"0","num_feature":"36","num_nodes":"5","size_leaf_vector":"0"}},{"base_weights":[-1.1621988E-1,-4.2702904E-1,6.028296E-1],"categories":[],"categories_nodes":[],"categories_segments":[],"categories_sizes":[],"default_left":[true,false,false],"id":54,"left_children":[1,-1,-1],"loss_changes":[2.1902222E1,0E0,0E0],"parents":[2147483647,0,0],"right_children":[2,-1,-1],"split_conditions":[5E-1,-1.2810872E-1,1.8084888E-1],"split_indices":[18,0,0],"split_type":[0,0,0],"sum_hessian":[9.585028E1,6.720642E1,2.864386E1],"tree_param":{"num_deleted":"0","num_feature":"36","num_nodes":"3","size_leaf_vector":"0"}},{"base_weights":[3.7713796E-1,-4.227411E-1,1.0343491E0,1.1560265E0,-4.2400083E-1,1.2778922E0,-4.0254226E-1],"categories":[],"categories_nodes":[],"categories_segments":[],"categories_sizes":[],"default_left":[true,false,true,true,false,false,false],"id":55,"left_children":[1,-1,3,5,-1,-1,-1],"loss_changes":[6.1069626E1,0E0,1.1776947E1,1.1716118E1,0E0,0E0,0E0],"parents":[2147483647,0,0,2,2,3,3],"right_children":[2,-1,4,6,-1,-1,-1],"split_conditions":[5E-1,-1.2682234E-1,5E-1,5E-1,-1.2720026E-1,3.833677E-1,-1.2076268E-1],"split_indices":[3,0,32,22,0,0,0],"split_type":[0,0,0,0,0,0,0],"sum_hessian":[1.1433877E2,5.1732677E1,6.260609E1,5.7976154E1,4.629936E0,5.3938725E1,4.037428E0],"tree_param":{"num_deleted":"0","num_feature":"36","num_nodes":"7","size_leaf_vector":"0"}},{"base_weights":[3.4537673E-1,-4.6042803E-1,1.1172887E0,1.2472109E0,-4.0254226E-1,1.3899927E0,-4.052632E-1],"categories":[],"categories_nodes":[],"categories_segments":[],"categories_sizes":[],"default_left":[true,false,true,true,false,false,false],"id":56,"left_children":[1,-1,3,5,-1,-1,-1],"loss_changes":[6.63687E1,0E0,1.1237076E1,1.243792E1,0E0,0E0,0E0],"parents":[2147483647,0,0,2,2,3,3],"right_children":[2,-1,4,6,-1,-1,-1],"split_conditions":[5E-1,-1.3812841E-1,5E-1,5E-1,-1.2076268E-1,4.1699782E-1,-1.2157896E-1],"split_indices":[3,0,22,32,0,0,0],"split_type":[0,0,0,0,0,0,0],"sum_hessian":[1.0487327E2,5.1507607E1,5.3365658E1,4.932823E1,4.037428E0,4.5551224E1,3.7770064E0],"tree_param":{"num_deleted":"0","num_feature":"36","num_nodes":"7","size_leaf_vector":"0"}},{"base_weights":[-1.7200792E-1,-5.0018966E-1,5.612329E-1],"categories":[],"categories_nodes":[],"categories_segments":[],"categories_sizes":[],"default_left":[true,false,false],"id":57,"left_children":[1,-1,-1],"loss_changes":[2.3373505E1,0E0,0E0],"parents":[2147483647,0,0],"right_children":[2,-1,-1],"split_conditions":[5E-1,-1.500569E-1,1.6836989E-1],"split_indices":[2,0,0],"split_type":[0,0,0],"sum_hessian":[9.4965515E1,6.582265E1,2.9142866E1],"tree_param":{"num_deleted":"0","num_feature":"36","num_nodes":"3","size_leaf_vector":"0"}},{"base_weights":[-1.6446282E-1,-5.00215E-1,5.877891E-1],"categories":[],"categories_nodes":[],"categories_segments":[],"categories_sizes":[],"default_left":[true,false,false],"id":58,"left_children":[1,-1,-1],"loss_changes":[2.4804607E1,0E0,0E0],"parents":[2147483647,0,0],"right_children":[2,-1,-1],"split_conditions":[5E-1,-1.500645E-1,1.7633674E-1],"split_indices":[7,0,0],"split_type":[0,0,0],"sum_hessian":[9.604465E1,6.6637436E1,2.9407207E1],"tree_param":{"num_deleted":"0","num_feature":"36","num_nodes":"3","size_leaf_vector":"0"}},{"base_weights":[-1.2336639E-1,-4.2724016E-1,5.947018E-1,-4.9844012E-1,-1.8433346E-1,-8.595184E-2,-4.0254226E-1],"categories":[],"categories_nodes":[],"categories_segments":[],"categories_sizes":[],"default_left":[true,true,false,false,true,false,false],"id":59,"left_children":[1,3,-1,-1,5,-1,-1],"loss_changes":[2.1304308E1,1.0905333E0,0E0,0E0,3.3215588E-1,0E0,0E0],"parents":[2147483647,0,0,1,1,4,4],"right_children":[2,4,-1,-1,6,-1,-1],"split_conditions":[5E-1,5E-1,1.7841056E-1,-1.4953203E-1,5E-1,-2.5785554E-2,-1.2076268E-1],"split_indices":[30,3,0,0,22,0,0],"split_type":[0,0,0,0,0,0,0],"sum_hessian":[9.547124E1,6.736751E1,2.8103724E1,5.1283493E1,1.6084017E1,1.2046589E1,4.037428E0],"tree_param":{"num_deleted":"0","num_feature":"36","num_nodes":"7","size_leaf_vector":"0"}},{"base_weights":[6.466375E-1,9.2601395E-1,-4.7676745E-1,1.0055525E0,-3.920331E-1,1.0382919E0,-2.9055274E-1,1.0671732E0,-2.6854873E-1,1.096991E0,-2.6788634E-1,1.1278728E0,-2.6753965E-1],"categories":[],"categories_nodes":[],"categories_segments":[],"categories_sizes":[],"default_left":[true,true,false,true,false,true,false,true,false,true,false,false,false],"id":60,"left_children":[1,3,-1,5,-1,7,-1,9,-1,11,-1,-1,-1],"loss_changes":[2.6625244E1,7.434086E0,0E0,3.0008926E0,0E0,2.636551E0,0E0,2.726822E0,0E0,2.8291702E0,0E0,0E0,0E0],"parents":[2147483647,0,0,1,1,3,3,5,5,7,7,9,9],"right_children":[2,4,-1,6,-1,8,-1,10,-1,12,-1,-1,-1],"split_conditions":[5E-1,5E-1,-1.4303024E-1,5E-1,-1.1760993E-1,5E-1,-8.7165825E-2,5E-1,-8.056462E-2,5E-1,-8.03659E-2,3.3836186E-1,-8.02619E-2],"split_indices":[3,25,0,0,0,26,0,33,0,16,0,0,0],"split_type":[0,0,0,0,0,0,0,0,0,0,0,0,0],"sum_hessian":[8.242683E1,6.6151505E1,1.6275324E1,6.2610325E1,3.5411816E0,6.126178E1,1.3485442E0,6.0116592E1,1.1451883E0,5.8977684E1,1.1389081E0,5.7842045E1,1.1356395E0],"tree_param":{"num_deleted":"0","num_feature":"36","num_nodes":"13","size_leaf_vector":"0"}},{"base_weights":[-1.6748708E-1,-5.0021464E-1,5.881887E-1],"categories":[],"categories_nodes":[],"categories_segments":[],"categories_sizes":[],"default_left":[true,false,false],"id":61,"left_children":[1,-1,-1],"loss_changes":[2.459411E1,0E0,0E0],"parents":[2147483647,0,0],"right_children":[2,-1,-1],"split_conditions":[5E-1,-1.500644E-1,1.7645662E-1],"split_indices":[4,0,0],"split_type":[0,0,0],"sum_hessian":[9.564515E1,6.66409E1,2.9004242E1],"tree_param":{"num_deleted":"0","num_feature":"36","num_nodes":"3","size_leaf_vector":"0"}},{"base_weights":[6.466375E-1,9.2601395E-1,-4.7676745E-1,1.0055525E0,-3.920331E-1,1.0382919E0,-2.9055274E-1,1.0671732E0,-2.6854873E-1,1.096991E0,-2.6788634E-1,1.1278728E0,-2.6753965E-1],"categories":[],"categories_nodes":[],"categories_segments":[],"categories_sizes":[],"default_left":[true,true,false,true,false,true,false,true,false,true,false,false,false],"id":62,"left_children":[1,3,-1,5,-1,7,-1,9,-1,11,-1,-1,-1],"loss_changes":[2.6625244E1,7.434086E0,0E0,3.0008926E0,0E0,2.636551E0,0E0,2.726822E0,0E0,2.8291702E0,0E0,0E0,0E0],"parents":[2147483647,0,0,1,1,3,3,5,5,7,7,9,9],"right_children":[2,4,-1,6,-1,8,-1,10,-1,12,-1,-1,-1],"split_conditions":[5E-1,5E-1,-1.4303024E-1,5E-1,-1.1760993E-1,5E-1,-8.7165825E-2,5E-1,-8.056462E-2,5E-1,-8.03659E-2,3.3836186E-1,-8.02619E-2],"split_indices":[3,25,0,0,0,26,0,33,0,16,0,0,0],"split_type":[0,0,0,0,0,0,0,0,0,0,0,0,0],"sum_hessian":[8.242683E1,6.6151505E1,1.6275324E1,6.2610325E1,3.5411816E0,6.126178E1,1.3485442E0,6.0116592E1,1.1451883E0,5.8977684E1,1.1389081E0,5.7842045E1,1.1356395E0],"tree_param":{"num_deleted":"0","num_feature":"36","num_nodes":"13","size_leaf_vector":"0"}},{"base_weights":[5.98472E-1,8.697041E-1,-4.7676745E-1,9.4717216E-1,-3.920331E-1,9.786025E-1,-2.88623E-1,1.0063238E0,-2.6661462E-1,1.0349424E0,-2.6595125E-1,1.0645807E0,-2.6560402E-1],"categories":[],"categories_nodes":[],"categories_segments":[],"categories_sizes":[],"default_left":[true,true,false,true,false,true,false,true,false,true,false,false,false],"id":63,"left_children":[1,3,-1,5,-1,7,-1,9,-1,11,-1,-1,-1],"loss_changes":[2.449036E1,6.8495903E0,0E0,2.719223E0,0E0,2.388054E0,0E0,2.4700928E0,0E0,2.5630836E0,0E0,0E0,0E0],"parents":[2147483647,0,0,1,1,3,3,5,5,7,7,9,9],"right_children":[2,4,-1,6,-1,8,-1,10,-1,12,-1,-1,-1],"split_conditions":[5E-1,5E-1,-1.4303024E-1,5E-1,-1.1760993E-1,5E-1,-8.658691E-2,5E-1,-7.998439E-2,5E-1,-7.978538E-2,3.193742E-1,-7.968121E-2],"split_indices":[3,25,0,0,0,26,0,33,0,16,0,0,0],"split_type":[0,0,0,0,0,0,0,0,0,0,0,0,0],"sum_hessian":[8.155301E1,6.527768E1,1.6275324E1,6.17365E1,3.5411816E0,6.0408237E1,1.3282619E0,5.9280376E1,1.1278627E0,5.8158695E1,1.1216793E0,5.7040234E1,1.118461E0],"tree_param":{"num_deleted":"0","num_feature":"36","num_nodes":"13","size_leaf_vector":"0"}},{"base_weights":[-1.7061152E-1,-5.0021386E-1,5.9311444E-1],"categories":[],"categories_nodes":[],"categories_segments":[],"categories_sizes":[],"default_left":[true,false,false],"id":64,"left_children":[1,-1,-1],"loss_changes":[2.448091E1,0E0,0E0],"parents":[2147483647,0,0],"right_children":[2,-1,-1],"split_conditions":[5E-1,-1.5006417E-1,1.7793433E-1],"split_indices":[1,0,0],"split_type":[0,0,0],"sum_hessian":[9.5073654E1,6.665311E1,2.8420547E1],"tree_param":{"num_deleted":"0","num_feature":"36","num_nodes":"3","size_leaf_vector":"0"}},{"base_weights":[-1.0869727E-1,-4.1250038E-1,5.891094E-1],"categories":[],"categories_nodes":[],"categories_segments":[],"categories_sizes":[],"default_left":[true,false,false],"id":65,"left_children":[1,-1,-1],"loss_changes":[2.0843998E1,0E0,0E0],"parents":[2147483647,0,0],"right_children":[2,-1,-1],"split_conditions":[5E-1,-1.2375012E-1,1.7673284E-1],"split_indices":[35,0,0],"split_type":[0,0,0],"sum_hessian":[9.617639E1,6.728951E1,2.8886879E1],"tree_param":{"num_deleted":"0","num_feature":"36","num_nodes":"3","size_leaf_vector":"0"}},{"base_weights":[-1.6688694E-1,-5.002149E-1,5.8598596E-1],"categories":[],"categories_nodes":[],"categories_segments":[],"categories_sizes":[],"default_left":[true,false,false],"id":66,"left_children":[1,-1,-1],"loss_changes":[2.4585936E1,0E0,0E0],"parents":[2147483647,0,0],"right_children":[2,-1,-1],"split_conditions":[5E-1,-1.5006447E-1,1.757958E-1],"split_indices":[5,0,0],"split_type":[0,0,0],"sum_hessian":[9.580203E1,6.663539E1,2.9166647E1],"tree_param":{"num_deleted":"0","num_feature":"36","num_nodes":"3","size_leaf_vector":"0"}},{"base_weights":[-1.6388875E-1,-5.002151E-1,5.868781E-1],"categories":[],"categories_nodes":[],"categories_segments":[],"categories_sizes":[],"default_left":[true,false,false],"id":67,"left_children":[1,-1,-1],"loss_changes":[2.4824718E1,0E0,0E0],"parents":[2147483647,0,0],"right_children":[2,-1,-1],"split_conditions":[5E-1,-1.5006454E-1,1.7606345E-1],"split_indices":[9,0,0],"split_type":[0,0,0],"sum_hessian":[9.615205E1,6.663487E1,2.951717E1],"tree_param":{"num_deleted":"0","num_feature":"36","num_nodes":"3","size_leaf_vector":"0"}},{"base_weights":[-1.6950622E-1,-5.002139E-1,5.94169E-1],"categories":[],"categories_nodes":[],"categories_segments":[],"categories_sizes":[],"default_left":[true,false,false],"id":68,"left_children":[1,-1,-1],"loss_changes":[2.4586153E1,0E0,0E0],"parents":[2147483647,0,0],"right_children":[2,-1,-1],"split_conditions":[5E-1,-1.5006419E-1,1.7825072E-1],"split_indices":[6,0,0],"split_type":[0,0,0],"sum_hessian":[9.517352E1,6.6654106E1,2.8519411E1],"tree_param":{"num_deleted":"0","num_feature":"36","num_nodes":"3","size_leaf_vector":"0"}},{"base_weights":[-1.1554693E-1,-4.2702693E-1,6.016886E-1],"categories":[],"categories_nodes":[],"categories_segments":[],"categories_sizes":[],"default_left":[true,false,false],"id":69,"left_children":[1,-1,-1],"loss_changes":[2.192382E1,0E0,0E0],"parents":[2147483647,0,0],"right_children":[2,-1,-1],"split_conditions":[5E-1,-1.2810808E-1,1.8050659E-1],"split_indices":[31,0,0],"split_type":[0,0,0],"sum_hessian":[9.598498E1,6.720424E1,2.8780737E1],"tree_param":{"num_deleted":"0","num_feature":"36","num_nodes":"3","size_leaf_vector":"0"}},{"base_weights":[6.749657E-1,9.5896465E-1,-4.7676745E-1,1.0396646E0,-3.920331E-1,1.073171E0,-2.9170913E-1,1.1027322E0,-2.6970854E-1,1.1332529E0,-2.690468E-1,1.1648638E0,-2.6870045E-1],"categories":[],"categories_nodes":[],"categories_segments":[],"categories_sizes":[],"default_left":[true,true,false,true,false,true,false,true,false,true,false,false,false],"id":70,"left_children":[1,3,-1,5,-1,7,-1,9,-1,11,-1,-1,-1],"loss_changes":[2.7918869E1,7.786648E0,0E0,3.1743393E0,0E0,2.7896042E0,0E0,2.8849564E0,0E0,2.9930649E0,0E0,0E0,0E0],"parents":[2147483647,0,0,1,1,3,3,5,5,7,7,9,9],"right_children":[2,4,-1,6,-1,8,-1,10,-1,12,-1,-1,-1],"split_conditions":[5E-1,5E-1,-1.4303024E-1,5E-1,-1.1760993E-1,5E-1,-8.751274E-2,5E-1,-8.091257E-2,5E-1,-8.071405E-2,3.4945917E-1,-8.061014E-2],"split_indices":[3,25,0,0,0,26,0,33,0,16,0,0,0],"split_type":[0,0,0,0,0,0,0,0,0,0,0,0,0],"sum_hessian":[8.295726E1,6.668194E1,1.6275324E1,6.3140755E1,3.5411816E0,6.1779896E1,1.3608603E0,6.0624187E1,1.1557103E0,5.9474815E1,1.1493715E0,5.8328743E1,1.1460721E0],"tree_param":{"num_deleted":"0","num_feature":"36","num_nodes":"13","size_leaf_vector":"0"}},{"base_weights":[6.655703E-1,9.4805E-1,-4.7676745E-1,1.0283695E0,-3.920331E-1,1.0616217E0,-2.9132378E-1,1.0909576E0,-2.69322E-1,1.1212453E0,-2.6866004E-1,1.1526147E0,-2.6831356E-1],"categories":[],"categories_nodes":[],"categories_segments":[],"categories_sizes":[],"default_left":[true,true,false,true,false,true,false,true,false,true,false,false,false],"id":71,"left_children":[1,3,-1,5,-1,7,-1,9,-1,11,-1,-1,-1],"loss_changes":[2.7486717E1,7.6690025E0,0E0,3.1161575E0,0E0,2.738266E0,0E0,2.8319092E0,0E0,2.9380875E0,0E0,0E0,0E0],"parents":[2147483647,0,0,1,1,3,3,5,5,7,7,9,9],"right_children":[2,4,-1,6,-1,8,-1,10,-1,12,-1,-1,-1],"split_conditions":[5E-1,5E-1,-1.4303024E-1,5E-1,-1.1760993E-1,5E-1,-8.7397136E-2,5E-1,-8.079661E-2,5E-1,-8.059801E-2,3.4578443E-1,-8.049407E-2],"split_indices":[3,25,0,0,0,26,0,33,0,16,0,0,0],"split_type":[0,0,0,0,0,0,0,0,0,0,0,0,0],"sum_hessian":[8.277994E1,6.6504616E1,1.6275324E1,6.2963432E1,3.5411816E0,6.160669E1,1.3567427E0,6.04545E1,1.1521924E0,5.9308624E1,1.145873E0,5.8166042E1,1.1425841E0],"tree_param":{"num_deleted":"0","num_feature":"36","num_nodes":"13","size_leaf_vector":"0"}},{"base_weights":[-1.7351496E-1,-5.002133E-1,5.956656E-1],"categories":[],"categories_nodes":[],"categories_segments":[],"categories_sizes":[],"default_left":[true,false,false],"id":72,"left_children":[1,-1,-1],"loss_changes":[2.432687E1,0E0,0E0],"parents":[2147483647,0,0],"right_children":[2,-1,-1],"split_conditions":[5E-1,-1.50064E-1,1.7869967E-1],"split_indices":[10,0,0],"split_type":[0,0,0],"sum_hessian":[9.462222E1,6.665932E1,2.7962904E1],"tree_param":{"num_deleted":"0","num_feature":"36","num_nodes":"3","size_leaf_vector":"0"}},{"base_weights":[-1.7271808E-1,-5.0014925E-1,5.614021E-1,-2.5676274E-1,5.9957653E-1],"categories":[],"categories_nodes":[],"categories_segments":[],"categories_sizes":[],"default_left":[true,false,true,false,false],"id":73,"left_children":[1,-1,3,-1,-1],"loss_changes":[2.3267105E1,0E0,1.0899076E0,0E0,0E0],"parents":[2147483647,0,0,2,2],"right_children":[2,-1,4,-1,-1],"split_conditions":[5E-1,-1.5004478E-1,5E-1,-7.7028826E-2,1.7987296E-1],"split_indices":[0,0,25,0,0],"split_type":[0,0,0,0,0],"sum_hessian":[9.462738E1,6.5660355E1,2.8967024E1,1.0360512E0,2.7930973E1],"tree_param":{"num_deleted":"0","num_feature":"36","num_nodes":"5","size_leaf_vector":"0"}},{"base_weights":[-1.6559303E-1,-5.0021505E-1,5.8554506E-1],"categories":[],"categories_nodes":[],"categories_segments":[],"categories_sizes":[],"default_left":[true,false,false],"id":74,"left_children":[1,-1,-1],"loss_changes":[2.4669489E1,0E0,0E0],"parents":[2147483647,0,0],"right_children":[2,-1,-1],"split_conditions":[5E-1,-1.5006453E-1,1.7566353E-1],"split_indices":[8,0,0],"split_type":[0,0,0],"sum_hessian":[9.598369E1,6.663344E1,2.9350252E1],"tree_param":{"num_deleted":"0","num_feature":"36","num_nodes":"3","size_leaf_vector":"0"}},{"base_weights":[-1.128475E-1,-4.2701817E-1,5.974391E-1],"categories":[],"categories_nodes":[],"categories_segments":[],"categories_sizes":[],"default_left":[true,false,false],"id":75,"left_children":[1,-1,-1],"loss_changes":[2.2016397E1,0E0,0E0],"parents":[2147483647,0,0],"right_children":[2,-1,-1],"split_conditions":[5E-1,-1.2810546E-1,1.7923173E-1],"split_indices":[26,0,0],"split_type":[0,0,0],"sum_hessian":[9.651808E1,6.719536E1,2.932273E1],"tree_param":{"num_deleted":"0","num_feature":"36","num_nodes":"3","size_leaf_vector":"0"}},{"base_weights":[-1.160531E-1,-4.6858335E-1,7.198266E-1,-5.0014734E-1,4.1124824E-1,1.7499043E0,6.026467E-1],"categories":[],"categories_nodes":[],"categories_segments":[],"categories_sizes":[],"default_left":[true,true,true,false,false,false,false],"id":76,"left_children":[1,3,5,-1,-1,-1,-1],"loss_changes":[2.8792469E1,2.108715E0,2.450616E0,0E0,0E0,0E0,0E0],"parents":[2147483647,0,0,1,1,2,2],"right_children":[2,4,6,-1,-1,-1,-1],"split_conditions":[5E-1,5E-1,5E-1,-1.500442E-1,1.2337448E-1,5.249713E-1,1.8079402E-1],"split_indices":[0,27,27,0,0,0,0],"split_type":[0,0,0,0,0,0,0],"sum_hessian":[9.556528E1,6.752583E1,2.8039444E1,6.5603836E1,1.9219997E0,1.4407707E0,2.6598675E1],"tree_param":{"num_deleted":"0","num_feature":"36","num_nodes":"7","size_leaf_vector":"0"}},{"base_weights":[-1.1853882E-1,-4.270033E-1,5.8911425E-1],"categories":[],"categories_nodes":[],"categories_segments":[],"categories_sizes":[],"default_left":[true,false,false],"id":77,"left_children":[1,-1,-1],"loss_changes":[2.1440346E1,0E0,0E0],"parents":[2147483647,0,0],"right_children":[2,-1,-1],"split_conditions":[5E-1,-1.2810099E-1,1.7673428E-1],"split_indices":[21,0,0],"split_type":[0,0,0],"sum_hessian":[9.606903E1,6.71814E1,2.8887636E1],"tree_param":{"num_deleted":"0","num_feature":"36","num_nodes":"3","size_leaf_vector":"0"}},{"base_weights":[-6.0348816E-2,-3.410869E-1,6.0769105E-1,-2.9015222E-1,-4.7676745E-1],"categories":[],"categories_nodes":[],"categories_segments":[],"categories_sizes":[],"default_left":[true,true,false,false,false],"id":78,"left_children":[1,3,-1,-1,-1],"loss_changes":[1.8412758E1,3.3844566E-1,0E0,0E0,0E0],"parents":[2147483647,0,0,1,1],"right_children":[2,4,-1,-1,-1],"split_conditions":[5E-1,5E-1,1.8230732E-1,-8.704567E-2,-1.4303024E-1],"split_indices":[17,3,0,0,0],"split_type":[0,0,0,0,0],"sum_hessian":[9.607301E1,6.799015E1,2.8082863E1,5.171483E1,1.6275324E1],"tree_param":{"num_deleted":"0","num_feature":"36","num_nodes":"5","size_leaf_vector":"0"}},{"base_weights":[-1.1621988E-1,-4.2702904E-1,6.028296E-1],"categories":[],"categories_nodes":[],"categories_segments":[],"categories_sizes":[],"default_left":[true,false,false],"id":79,"left_children":[1,-1,-1],"loss_changes":[2.1902222E1,0E0,0E0],"parents":[2147483647,0,0],"right_children":[2,-1,-1],"split_conditions":[5E-1,-1.2810872E-1,1.8084888E-1],"split_indices":[29,0,0],"split_type":[0,0,0],"sum_hessian":[9.585028E1,6.720642E1,2.864386E1],"tree_param":{"num_deleted":"0","num_feature":"36","num_nodes":"3","size_leaf_vector":"0"}},{"base_weights":[-1.3227005E-1,-4.4158766E-1,6.1482346E-1],"categories":[],"categories_nodes":[],"categories_segments":[],"categories_sizes":[],"default_left":[true,false,false],"id":80,"left_children":[1,-1,-1],"loss_changes":[2.2339973E1,0E0,0E0],"parents":[2147483647,0,0],"right_children":[2,-1,-1],"split_conditions":[5E-1,-1.324763E-1,1.8444705E-1],"split_indices":[34,0,0],"split_type":[0,0,0],"sum_hessian":[9.449766E1,6.71179E1,2.7379759E1],"tree_param":{"num_deleted":"0","num_feature":"36","num_nodes":"3","size_leaf_vector":"0"}},{"base_weights":[-8.6787574E-2,-4.2726645E-1,6.20612E-1,-4.984302E-1,-1.8728709E-1,-9.1003336E-2,-4.0254226E-1],"categories":[],"categories_nodes":[],"categories_segments":[],"categories_sizes":[],"default_left":[true,true,false,false,true,false,false],"id":81,"left_children":[1,3,-1,-1,5,-1,-1],"loss_changes":[2.4454912E1,1.0746431E0,0E0,0E0,3.20768E-1,0E0,0E0],"parents":[2147483647,0,0,1,1,4,4],"right_children":[2,4,-1,-1,6,-1,-1],"split_conditions":[5E-1,5E-1,1.8618362E-1,-1.4952907E-1,5E-1,-2.7301002E-2,-1.2076268E-1],"split_indices":[32,3,0,0,22,0,0],"split_type":[0,0,0,0,0,0,0],"sum_hessian":[9.943297E1,6.7392334E1,3.2040634E1,5.1147907E1,1.6244427E1,1.2206999E1,4.037428E0],"tree_param":{"num_deleted":"0","num_feature":"36","num_nodes":"7","size_leaf_vector":"0"}},{"base_weights":[-5.065586E-2,-3.1607437E-1,5.868091E-1,-2.63433E-1,-4.6931264E-1],"categories":[],"categories_nodes":[],"categories_segments":[],"categories_sizes":[],"default_left":[true,true,false,false,false],"id":82,"left_children":[1,3,-1,-1,-1],"loss_changes":[1.4433315E1,3.6121178E-1,0E0,0E0,0E0],"parents":[2147483647,0,0,1,1],"right_children":[2,4,-1,-1,-1],"split_conditions":[5E-1,5E-1,1.7604274E-1,-7.90299E-2,-1.407938E-1],"split_indices":[13,3,0,0,0],"split_type":[0,0,0,0,0],"sum_hessian":[8.320959E1,5.910462E1,2.4104963E1,4.601602E1,1.3088598E1],"tree_param":{"num_deleted":"0","num_feature":"36","num_nodes":"5","size_leaf_vector":"0"}},{"base_weights":[-8.753102E-2,-3.7920147E-1,5.8151037E-1,-3.4253508E-1,-4.6966305E-1],"categories":[],"categories_nodes":[],"categories_segments":[],"categories_sizes":[],"default_left":[true,true,false,false,false],"id":83,"left_children":[1,3,-1,-1,-1],"loss_changes":[1.6473646E1,3.3521652E-2,0E0,0E0,0E0],"parents":[2147483647,0,0,1,1],"right_children":[2,4,-1,-1,-1],"split_conditions":[5E-1,5E-1,1.7445311E-1,-1.0276053E-1,-1.4089893E-1],"split_indices":[12,3,0,0,0],"split_type":[0,0,0,0,0],"sum_hessian":[8.2289795E1,5.7608448E1,2.4681347E1,4.4398937E1,1.3209512E1],"tree_param":{"num_deleted":"0","num_feature":"36","num_nodes":"5","size_leaf_vector":"0"}},{"base_weights":[-4.99366E-2,-3.0105293E-1,5.6498754E-1,-2.447576E-1,-4.6931264E-1,-2.2828573E-1,-3.7196848E-1],"categories":[],"categories_nodes":[],"categories_segments":[],"categories_sizes":[],"default_left":[true,true,false,true,false,false,false],"id":84,"left_children":[1,3,-1,5,-1,-1,-1],"loss_changes":[1.3195438E1,4.5863247E-1,0E0,1.452589E-2,0E0,0E0,0E0],"parents":[2147483647,0,0,1,1,3,3],"right_children":[2,4,-1,6,-1,-1,-1],"split_conditions":[5E-1,5E-1,1.6949627E-1,5E-1,-1.407938E-1,-6.848572E-2,-1.1159055E-1],"split_indices":[33,3,0,25,0,0,0],"split_type":[0,0,0,0,0,0,0],"sum_hessian":[8.33515E1,5.95454E1,2.3806108E1,4.64568E1,1.3088598E1,4.3605145E1,2.851656E0],"tree_param":{"num_deleted":"0","num_feature":"36","num_nodes":"7","size_leaf_vector":"0"}},{"base_weights":[4.0056488E-1,5.460914E-1,-4.6931264E-1,5.83353E-1,-3.7001225E-1,6.014157E-1,-2.828697E-1,6.200515E-1,-2.8303397E-1,6.392735E-1,-2.8271136E-1,6.5916467E-1,-2.8271136E-1],"categories":[],"categories_nodes":[],"categories_segments":[],"categories_sizes":[],"default_left":[true,true,false,true,false,true,false,true,false,true,false,false,false],"id":85,"left_children":[1,3,-1,5,-1,7,-1,9,-1,11,-1,-1,-1],"loss_changes":[1.2225391E1,2.9965744E0,0E0,1.4009476E0,0E0,1.450882E0,0E0,1.5012093E0,0E0,1.5584202E0,0E0,0E0,0E0],"parents":[2147483647,0,0,1,1,3,3,5,5,7,7,9,9],"right_children":[2,4,-1,6,-1,8,-1,10,-1,12,-1,-1,-1],"split_conditions":[5E-1,5E-1,-1.407938E-1,5E-1,-1.1100368E-1,5E-1,-8.486091E-2,5E-1,-8.491019E-2,5E-1,-8.481341E-2,1.977494E-1,-8.481341E-2],"split_indices":[3,25,0,22,0,31,0,18,0,29,0,0,0],"split_type":[0,0,0,0,0,0,0,0,0,0,0,0,0],"sum_hessian":[9.354999E1,8.046139E1,1.3088598E1,7.7665634E1,2.795752E0,7.637867E1,1.2869633E0,7.509532E1,1.2833542E0,7.3815475E1,1.2798436E0,7.253563E1,1.2798436E0],"tree_param":{"num_deleted":"0","num_feature":"36","num_nodes":"13","size_leaf_vector":"0"}},{"base_weights":[-4.6951048E-2,-3.160493E-1,5.7948333E-1,-2.6339105E-1,-4.6931264E-1],"categories":[],"categories_nodes":[],"categories_segments":[],"categories_sizes":[],"default_left":[true,true,false,false,false],"id":86,"left_children":[1,3,-1,-1,-1],"loss_changes":[1.4509459E1,3.6139536E-1,0E0,0E0,0E0],"parents":[2147483647,0,0,1,1],"right_children":[2,4,-1,-1,-1],"split_conditions":[5E-1,5E-1,1.7384501E-1,-7.901732E-2,-1.407938E-1],"split_indices":[15,3,0,0,0],"split_type":[0,0,0,0,0],"sum_hessian":[8.3986115E1,5.909575E1,2.4890362E1,4.6007153E1,1.3088598E1],"tree_param":{"num_deleted":"0","num_feature":"36","num_nodes":"5","size_leaf_vector":"0"}},{"base_weights":[-1.0813758E-1,-4.1188735E-1,5.825795E-1],"categories":[],"categories_nodes":[],"categories_segments":[],"categories_sizes":[],"default_left":[true,false,false],"id":87,"left_children":[1,-1,-1],"loss_changes":[1.7524347E1,0E0,0E0],"parents":[2147483647,0,0],"right_children":[2,-1,-1],"split_conditions":[5E-1,-1.2356621E-1,1.7477386E-1],"split_indices":[28,0,0],"split_type":[0,0,0],"sum_hessian":[8.138306E1,5.6805813E1,2.4577246E1],"tree_param":{"num_deleted":"0","num_feature":"36","num_nodes":"3","size_leaf_vector":"0"}},{"base_weights":[-7.913936E-2,-4.605618E-1,3.6334762E-1,-4.958438E-1,3.5876045E-1,4.3919274E-1,-3.8107485E-1,2.1057832E-1,5.682595E-1],"categories":[],"categories_nodes":[],"categories_segments":[],"categories_sizes":[],"default_left":[true,true,true,false,false,true,false,false,false],"id":88,"left_children":[1,3,5,-1,-1,7,-1,-1,-1],"loss_changes":[1.4245895E1,1.4856672E0,2.3792715E0,0E0,0E0,9.431076E-1,0E0,0E0,0E0],"parents":[2147483647,0,0,1,1,2,2,5,5],"right_children":[2,4,6,-1,-1,8,-1,-1,-1],"split_conditions":[5E-1,5E-1,5E-1,-1.4875315E-1,1.0762814E-1,5E-1,-1.1432246E-1,6.31735E-2,1.7047785E-1],"split_indices":[3,23,22,0,0,23,0,0,0],"split_type":[0,0,0,0,0,0,0,0,0],"sum_hessian":[8.241637E1,4.424041E1,3.8175953E1,4.2792477E1,1.4479344E0,3.5018166E1,3.1577868E0,1.3585636E1,2.143253E1],"tree_param":{"num_deleted":"0","num_feature":"36","num_nodes":"9","size_leaf_vector":"0"}},{"base_weights":[-1.6292316E-1,-4.9791306E-1,5.637607E-1],"categories":[],"categories_nodes":[],"categories_segments":[],"categories_sizes":[],"default_left":[true,false,false],"id":89,"left_children":[1,-1,-1],"loss_changes":[2.0048195E1,0E0,0E0],"parents":[2147483647,0,0],"right_children":[2,-1,-1],"split_conditions":[5E-1,-1.4937392E-1,1.6912821E-1],"split_indices":[11,0,0],"split_type":[0,0,0],"sum_hessian":[8.020342E1,5.511232E1,2.5091103E1],"tree_param":{"num_deleted":"0","num_feature":"36","num_nodes":"3","size_leaf_vector":"0"}},{"base_weights":[-6.669686E-2,-3.47047E-1,5.804909E-1,-3.0151594E-1,-4.6978438E-1],"categories":[],"categories_nodes":[],"categories_segments":[],"categories_sizes":[],"default_left":[true,true,false,false,false],"id":90,"left_children":[1,3,-1,-1,-1],"loss_changes":[1.5456812E1,1.8970013E-1,0E0,0E0,0E0],"parents":[2147483647,0,0,1,1],"right_children":[2,4,-1,-1,-1],"split_conditions":[5E-1,5E-1,1.7414728E-1,-9.045479E-2,-1.4093532E-1],"split_indices":[14,3,0,0,0],"split_type":[0,0,0,0,0],"sum_hessian":[8.307972E1,5.82923E1,2.4787418E1,4.5040516E1,1.3251783E1],"tree_param":{"num_deleted":"0","num_feature":"36","num_nodes":"5","size_leaf_vector":"0"}},{"base_weights":[-1.23422265E-1,-4.1238278E-1,5.6490535E-1,-4.958442E-1,-1.4648968E-1,-5.4079745E-2,-3.8107485E-1],"categories":[],"categories_nodes":[],"categories_segments":[],"categories_sizes":[],"default_left":[true,true,false,false,true,false,false],"id":91,"left_children":[1,3,-1,-1,5,-1,-1],"loss_changes":[1.6474846E1,1.2165365E0,0E0,0E0,3.110142E-1,0E0,0E0],"parents":[2147483647,0,0,1,1,4,4],"right_children":[2,4,-1,-1,6,-1,-1],"split_conditions":[5E-1,5E-1,1.694716E-1,-1.4875326E-1,5E-1,-1.6223924E-2,-1.1432246E-1],"split_indices":[20,3,0,0,22,0,0],"split_type":[0,0,0,0,0,0,0],"sum_hessian":[8.0658775E1,5.7092278E1,2.3566498E1,4.279462E1,1.4297659E1,1.1139873E1,3.1577868E0],"tree_param":{"num_deleted":"0","num_feature":"36","num_nodes":"7","size_leaf_vector":"0"}},{"base_weights":[-1.2019859E-1,-4.118559E-1,5.659048E-1],"categories":[],"categories_nodes":[],"categories_segments":[],"categories_sizes":[],"default_left":[true,false,false],"id":92,"left_children":[1,-1,-1],"loss_changes":[1.6546589E1,0E0,0E0],"parents":[2147483647,0,0],"right_children":[2,-1,-1],"split_conditions":[5E-1,-1.2355678E-1,1.6977145E-1],"split_indices":[16,0,0],"split_type":[0,0,0],"sum_hessian":[8.052393E1,5.6784847E1,2.3739088E1],"tree_param":{"num_deleted":"0","num_feature":"36","num_nodes":"3","size_leaf_vector":"0"}},{"base_weights":[-1.4932652E-1,-4.63747E-1,5.529483E-1,-4.9774012E-1,3.8238353E-1],"categories":[],"categories_nodes":[],"categories_segments":[],"categories_sizes":[],"default_left":[true,true,false,false,false],"id":93,"left_children":[1,3,-1,-1,-1],"loss_changes":[1.7907303E1,1.7941256E0,0E0,0E0,0E0],"parents":[2147483647,0,0,1,1],"right_children":[2,4,-1,-1,-1],"split_conditions":[5E-1,5E-1,1.658845E-1,-1.4932205E-1,1.1471506E-1],"split_indices":[25,24,0,0,0],"split_type":[0,0,0,0,0],"sum_hessian":[7.893708E1,5.475982E1,2.4177261E1,5.304067E1,1.7191513E0],"tree_param":{"num_deleted":"0","num_feature":"36","num_nodes":"5","size_leaf_vector":"0"}},{"base_weights":[-8.420354E-2,-3.6306655E-1,5.960754E-1,-3.2194507E-1,-4.6972206E-1],"categories":[],"categories_nodes":[],"categories_segments":[],"categories_sizes":[],"default_left":[true,true,false,false,false],"id":94,"left_children":[1,3,-1,-1,-1],"loss_changes":[1.5822106E1,1.0739565E-1,0E0,0E0,0E0],"parents":[2147483647,0,0,1,1],"right_children":[2,4,-1,-1,-1],"split_conditions":[5E-1,5E-1,1.7882264E-1,-9.658352E-2,-1.4091663E-1],"split_indices":[19,3,0,0,0],"split_type":[0,0,0,0,0],"sum_hessian":[8.126309E1,5.7967213E1,2.3295883E1,4.473716E1,1.3230051E1],"tree_param":{"num_deleted":"0","num_feature":"36","num_nodes":"5","size_leaf_vector":"0"}},{"base_weights":[-1.04986064E-1,-4.1187632E-1,5.778034E-1],"categories":[],"categories_nodes":[],"categories_segments":[],"categories_sizes":[],"default_left":[true,false,false],"id":95,"left_children":[1,-1,-1],"loss_changes":[1.7615252E1,0E0,0E0],"parents":[2147483647,0,0],"right_children":[2,-1,-1],"split_conditions":[5E-1,-1.235629E-1,1.7334102E-1],"split_indices":[18,0,0],"split_type":[0,0,0],"sum_hessian":[8.192999E1,5.679802E1,2.5131971E1],"tree_param":{"num_deleted":"0","num_feature":"36","num_nodes":"3","size_leaf_vector":"0"}},{"base_weights":[2.871442E-1,-4.079007E-1,6.7866385E-1,7.355727E-1,-4.0132734E-1,7.8932256E-1,-3.8107485E-1,8.096741E-1,-2.6656222E-1,8.298689E-1,-2.616949E-1,8.5035807E-1,-2.5970197E-1],"categories":[],"categories_nodes":[],"categories_segments":[],"categories_sizes":[],"default_left":[true,false,true,true,false,true,false,true,false,true,false,false,false],"id":96,"left_children":[1,-1,3,5,-1,7,-1,9,-1,11,-1,-1,-1],"loss_changes":[3.3926918E1,0E0,5.1798553E0,4.853298E0,0E0,1.7779121E0,0E0,1.7655716E0,0E0,1.7942886E0,0E0,0E0,0E0],"parents":[2147483647,0,0,2,2,3,3,5,5,7,7,9,9],"right_children":[2,-1,4,6,-1,8,-1,10,-1,12,-1,-1,-1],"split_conditions":[5E-1,-1.2237021E-1,5E-1,5E-1,-1.2039821E-1,5E-1,-1.1432246E-1,5E-1,-7.996867E-2,5E-1,-7.8508474E-2,2.5510743E-1,-7.7910595E-2],"split_indices":[3,0,32,22,0,30,0,1,0,20,0,0,0],"split_type":[0,0,0,0,0,0,0,0,0,0,0,0,0],"sum_hessian":[1.22657326E2,4.4181793E1,7.847553E1,7.485029E1,3.6252396E0,7.1692505E1,3.1577868E0,7.0565575E1,1.126931E0,6.948129E1,1.0842792E0,6.841433E1,1.0669663E0],"tree_param":{"num_deleted":"0","num_feature":"36","num_nodes":"13","size_leaf_vector":"0"}},{"base_weights":[2.621628E-1,-4.512E-1,7.1063524E-1,7.677379E-1,-3.8107485E-1,8.26948E-1,-3.813564E-1,8.515852E-1,-2.708033E-1,8.761662E-1,-2.6594347E-1,9.012423E-1,-2.6395413E-1],"categories":[],"categories_nodes":[],"categories_segments":[],"categories_sizes":[],"default_left":[true,false,true,true,false,true,false,true,false,true,false,false,false],"id":97,"left_children":[1,-1,3,5,-1,7,-1,9,-1,11,-1,-1,-1],"loss_changes":[3.669763E1,0E0,4.668991E0,4.8769836E0,0E0,1.9635658E0,0E0,1.9611549E0,0E0,2.0044212E0,0E0,0E0,0E0],"parents":[2147483647,0,0,2,2,3,3,5,5,7,7,9,9],"right_children":[2,-1,4,6,-1,8,-1,10,-1,12,-1,-1,-1],"split_conditions":[5E-1,-1.3536E-1,5E-1,5E-1,-1.1432246E-1,5E-1,-1.1440692E-1,5E-1,-8.1241E-2,5E-1,-7.9783045E-2,2.7037272E-1,-7.9186246E-2],"split_indices":[3,0,22,32,0,30,0,1,0,20,0,0,0],"split_type":[0,0,0,0,0,0,0,0,0,0,0,0,0],"sum_hessian":[1.1270528E2,4.3502277E1,6.9202995E1,6.604521E1,3.1577868E0,6.307543E1,2.969777E0,6.1910206E1,1.1652273E0,6.0789078E1,1.1211301E0,5.9685852E1,1.1032246E0],"tree_param":{"num_deleted":"0","num_feature":"36","num_nodes":"13","size_leaf_vector":"0"}},{"base_weights":[-1.8363494E-1,-4.978696E-1,5.2183276E-1],"categories":[],"categories_nodes":[],"categories_segments":[],"categories_sizes":[],"default_left":[true,false,false],"id":98,"left_children":[1,-1,-1],"loss_changes":[1.7873709E1,0E0,0E0],"parents":[2147483647,0,0],"right_children":[2,-1,-1],"split_conditions":[5E-1,-1.493609E-1,1.5654984E-1],"split_indices":[2,0,0],"split_type":[0,0,0],"sum_hessian":[7.845558E1,5.4482048E1,2.397353E1],"tree_param":{"num_deleted":"0","num_feature":"36","num_nodes":"3","size_leaf_vector":"0"}},{"base_weights":[-1.7396483E-1,-4.9791256E-1,5.579064E-1],"categories":[],"categories_nodes":[],"categories_segments":[],"categories_sizes":[],"default_left":[true,false,false],"id":99,"left_children":[1,-1,-1],"loss_changes":[1.9286667E1,0E0,0E0],"parents":[2147483647,0,0],"right_children":[2,-1,-1],"split_conditions":[5E-1,-1.4937377E-1,1.6737193E-1],"split_indices":[7,0,0],"split_type":[0,0,0],"sum_hessian":[7.917646E1,5.5105026E1,2.4071432E1],"tree_param":{"num_deleted":"0","num_feature":"36","num_nodes":"3","size_leaf_vector":"0"}},{"base_weights":[-1.2454306E-1,-4.1238827E-1,5.6418955E-1,-4.9584875E-1,-1.4575015E-1,-5.2902147E-2,-3.8107485E-1],"categories":[],"categories_nodes":[],"categories_segments":[],"categories_sizes":[],"default_left":[true,true,false,false,true,false,false],"id":100,"left_children":[1,3,-1,-1,5,-1,-1],"loss_changes":[1.6400805E1,1.2205486E0,0E0,0E0,3.1338343E-1,0E0,0E0],"parents":[2147483647,0,0,1,1,4,4],"right_children":[2,4,-1,-1,6,-1,-1],"split_conditions":[5E-1,5E-1,1.6925687E-1,-1.4875463E-1,5E-1,-1.5870646E-2,-1.1432246E-1],"split_indices":[30,3,0,0,22,0,0],"split_type":[0,0,0,0,0,0,0],"sum_hessian":[8.055497E1,5.7094456E1,2.3460512E1,4.2828922E1,1.4265532E1,1.1107744E1,3.1577868E0],"tree_param":{"num_deleted":"0","num_feature":"36","num_nodes":"7","size_leaf_vector":"0"}},{"base_weights":[4.531878E-1,5.981403E-1,-4.6931264E-1,6.3488185E-1,-3.7001225E-1,6.5388745E-1,-2.916676E-1,6.734841E-1,-2.9134935E-1,6.9375557E-1,-2.9134935E-1,7.146272E-1,-2.907465E-1],"categories":[],"categories_nodes":[],"categories_segments":[],"categories_sizes":[],"default_left":[true,true,false,true,false,true,false,true,false,true,false,false,false],"id":101,"left_children":[1,3,-1,5,-1,7,-1,9,-1,11,-1,-1,-1],"loss_changes":[1.3602335E1,3.3131027E0,0E0,1.6653442E0,0E0,1.7219086E0,0E0,1.7862549E0,0E0,1.8438911E0,0E0,0E0,0E0],"parents":[2147483647,0,0,1,1,3,3,5,5,7,7,9,9],"right_children":[2,4,-1,6,-1,8,-1,10,-1,12,-1,-1,-1],"split_conditions":[5E-1,5E-1,-1.407938E-1,5E-1,-1.1100368E-1,5E-1,-8.750029E-2,5E-1,-8.740481E-2,5E-1,-8.740481E-2,2.1438818E-1,-8.7223954E-2],"split_indices":[3,25,0,31,0,18,0,29,0,15,0,0,0],"split_type":[0,0,0,0,0,0,0,0,0,0,0,0,0],"sum_hessian":[9.862417E1,8.553557E1,1.3088598E1,8.2739815E1,2.795752E0,8.136511E1,1.3747064E0,7.999417E1,1.3709401E0,7.862323E1,1.3709401E0,7.725943E1,1.3637961E0],"tree_param":{"num_deleted":"0","num_feature":"36","num_nodes":"13","size_leaf_vector":"0"}},{"base_weights":[-1.6378337E-1,-4.9791303E-1,5.64307E-1],"categories":[],"categories_nodes":[],"categories_segments":[],"categories_sizes":[],"default_left":[true,false,false],"id":102,"left_children":[1,-1,-1],"loss_changes":[2.000835E1,0E0,0E0],"parents":[2147483647,0,0],"right_children":[2,-1,-1],"split_conditions":[5E-1,-1.4937392E-1,1.6929209E-1],"split_indices":[4,0,0],"split_type":[0,0,0],"sum_hessian":[8.009032E1,5.5113976E1,2.4976345E1],"tree_param":{"num_deleted":"0","num_feature":"36","num_nodes":"3","size_leaf_vector":"0"}},{"base_weights":[4.531878E-1,5.981403E-1,-4.6931264E-1,6.3488185E-1,-3.7001225E-1,6.5388745E-1,-2.916676E-1,6.734841E-1,-2.9134935E-1,6.9375557E-1,-2.9134935E-1,7.146272E-1,-2.907465E-1],"categories":[],"categories_nodes":[],"categories_segments":[],"categories_sizes":[],"default_left":[true,true,false,true,false,true,false,true,false,true,false,false,false],"id":103,"left_children":[1,3,-1,5,-1,7,-1,9,-1,11,-1,-1,-1],"loss_changes":[1.3602335E1,3.3131027E0,0E0,1.6653442E0,0E0,1.7219086E0,0E0,1.7862549E0,0E0,1.8438911E0,0E0,0E0,0E0],"parents":[2147483647,0,0,1,1,3,3,5,5,7,7,9,9],"right_children":[2,4,-1,6,-1,8,-1,10,-1,12,-1,-1,-1],"split_conditions":[5E-1,5E-1,-1.407938E-1,5E-1,-1.1100368E-1,5E-1,-8.750029E-2,5E-1,-8.740481E-2,5E-1,-8.740481E-2,2.1438818E-1,-8.7223954E-2],"split_indices":[3,25,0,31,0,18,0,29,0,15,0,0,0],"split_type":[0,0,0,0,0,0,0,0,0,0,0,0,0],"sum_hessian":[9.862417E1,8.553557E1,1.3088598E1,8.2739815E1,2.795752E0,8.136511E1,1.3747064E0,7.999417E1,1.3709401E0,7.862323E1,1.3709401E0,7.725943E1,1.3637961E0],"tree_param":{"num_deleted":"0","num_feature":"36","num_nodes":"13","size_leaf_vector":"0"}},{"base_weights":[4.277455E-1,5.731402E-1,-4.6931264E-1,6.101764E-1,-3.7001225E-1,6.287091E-1,-2.8739825E-1,6.47816E-1,-2.8707772E-1,6.675788E-1,-2.8707772E-1,6.8792456E-1,-2.864705E-1],"categories":[],"categories_nodes":[],"categories_segments":[],"categories_sizes":[],"default_left":[true,true,false,true,false,true,false,true,false,true,false,false,false],"id":104,"left_children":[1,3,-1,5,-1,7,-1,9,-1,11,-1,-1,-1],"loss_changes":[1.2929665E1,3.1593323E0,0E0,1.5311775E0,0E0,1.583313E0,0E0,1.6426239E0,0E0,1.6957359E0,0E0,0E0,0E0],"parents":[2147483647,0,0,1,1,3,3,5,5,7,7,9,9],"right_children":[2,4,-1,6,-1,8,-1,10,-1,12,-1,-1,-1],"split_conditions":[5E-1,5E-1,-1.407938E-1,5E-1,-1.1100368E-1,5E-1,-8.6219475E-2,5E-1,-8.612332E-2,5E-1,-8.612332E-2,2.0637737E-1,-8.594115E-2],"split_indices":[3,25,0,31,0,18,0,29,0,15,0,0,0],"split_type":[0,0,0,0,0,0,0,0,0,0,0,0,0],"sum_hessian":[9.607065E1,8.298205E1,1.3088598E1,8.0186295E1,2.795752E0,7.885763E1,1.3286638E0,7.75326E1,1.3250266E0,7.620758E1,1.3250266E0,7.488945E1,1.318128E0],"tree_param":{"num_deleted":"0","num_feature":"36","num_nodes":"13","size_leaf_vector":"0"}},{"base_weights":[-1.7464879E-1,-4.9791244E-1,5.637383E-1],"categories":[],"categories_nodes":[],"categories_segments":[],"categories_sizes":[],"default_left":[true,false,false],"id":105,"left_children":[1,-1,-1],"loss_changes":[1.935803E1,0E0,0E0],"parents":[2147483647,0,0],"right_children":[2,-1,-1],"split_conditions":[5E-1,-1.4937374E-1,1.6912149E-1],"split_indices":[1,0,0],"split_type":[0,0,0],"sum_hessian":[7.892393E1,5.511877E1,2.3805159E1],"tree_param":{"num_deleted":"0","num_feature":"36","num_nodes":"3","size_leaf_vector":"0"}},{"base_weights":[-1.0056895E-1,-3.9523193E-1,5.6497514E-1],"categories":[],"categories_nodes":[],"categories_segments":[],"categories_sizes":[],"default_left":[true,false,false],"id":106,"left_children":[1,-1,-1],"loss_changes":[1.6499292E1,0E0,0E0],"parents":[2147483647,0,0],"right_children":[2,-1,-1],"split_conditions":[5E-1,-1.1856958E-1,1.6949254E-1],"split_indices":[35,0,0],"split_type":[0,0,0],"sum_hessian":[8.199371E1,5.7113453E1,2.4880257E1],"tree_param":{"num_deleted":"0","num_feature":"36","num_nodes":"3","size_leaf_vector":"0"}},{"base_weights":[-1.798747E-1,-4.9791223E-1,5.5433995E-1],"categories":[],"categories_nodes":[],"categories_segments":[],"categories_sizes":[],"default_left":[true,false,false],"id":107,"left_children":[1,-1,-1],"loss_changes":[1.8874495E1,0E0,0E0],"parents":[2147483647,0,0],"right_children":[2,-1,-1],"split_conditions":[5E-1,-1.4937368E-1,1.66302E-1],"split_indices":[5,0,0],"split_type":[0,0,0],"sum_hessian":[7.864822E1,5.5101788E1,2.354643E1],"tree_param":{"num_deleted":"0","num_feature":"36","num_nodes":"3","size_leaf_vector":"0"}},{"base_weights":[-1.7546147E-1,-4.9791247E-1,5.5627567E-1],"categories":[],"categories_nodes":[],"categories_segments":[],"categories_sizes":[],"default_left":[true,false,false],"id":108,"left_children":[1,-1,-1],"loss_changes":[1.916809E1,0E0,0E0],"parents":[2147483647,0,0],"right_children":[2,-1,-1],"split_conditions":[5E-1,-1.4937374E-1,1.6688271E-1],"split_indices":[9,0,0],"split_type":[0,0,0],"sum_hessian":[7.906428E1,5.5102207E1,2.3962072E1],"tree_param":{"num_deleted":"0","num_feature":"36","num_nodes":"3","size_leaf_vector":"0"}},{"base_weights":[-1.7994563E-1,-4.979122E-1,5.6163573E-1],"categories":[],"categories_nodes":[],"categories_segments":[],"categories_sizes":[],"default_left":[true,false,false],"id":109,"left_children":[1,-1,-1],"loss_changes":[1.9006687E1,0E0,0E0],"parents":[2147483647,0,0],"right_children":[2,-1,-1],"split_conditions":[5E-1,-1.4937367E-1,1.6849072E-1],"split_indices":[6,0,0],"split_type":[0,0,0],"sum_hessian":[7.841982E1,5.5116287E1,2.3303535E1],"tree_param":{"num_deleted":"0","num_feature":"36","num_nodes":"3","size_leaf_vector":"0"}},{"base_weights":[-1.0435204E-1,-4.1187406E-1,5.769301E-1],"categories":[],"categories_nodes":[],"categories_segments":[],"categories_sizes":[],"default_left":[true,false,false],"id":110,"left_children":[1,-1,-1],"loss_changes":[1.7634884E1,0E0,0E0],"parents":[2147483647,0,0],"right_children":[2,-1,-1],"split_conditions":[5E-1,-1.23562224E-1,1.7307904E-1],"split_indices":[31,0,0],"split_type":[0,0,0],"sum_hessian":[8.203816E1,5.6796425E1,2.5241734E1],"tree_param":{"num_deleted":"0","num_feature":"36","num_nodes":"3","size_leaf_vector":"0"}},{"base_weights":[4.6766695E-1,6.122245E-1,-4.6931264E-1,6.487611E-1,-3.7001225E-1,6.6803557E-1,-2.9418385E-1,6.879106E-1,-2.9386702E-1,7.084714E-1,-2.9386702E-1,7.2964233E-1,-2.9326698E-1],"categories":[],"categories_nodes":[],"categories_segments":[],"categories_sizes":[],"default_left":[true,true,false,true,false,true,false,true,false,true,false,false,false],"id":111,"left_children":[1,3,-1,5,-1,7,-1,9,-1,11,-1,-1,-1],"loss_changes":[1.3990763E1,3.4011307E0,0E0,1.7466049E0,0E0,1.8058472E0,0E0,1.8732605E0,0E0,1.933651E0,0E0,0E0,0E0],"parents":[2147483647,0,0,1,1,3,3,5,5,7,7,9,9],"right_children":[2,4,-1,6,-1,8,-1,10,-1,12,-1,-1,-1],"split_conditions":[5E-1,5E-1,-1.407938E-1,5E-1,-1.1100368E-1,5E-1,-8.825516E-2,5E-1,-8.816011E-2,5E-1,-8.816011E-2,2.1889271E-1,-8.79801E-2],"split_indices":[3,25,0,31,0,18,0,29,0,15,0,0,0],"split_type":[0,0,0,0,0,0,0,0,0,0,0,0,0],"sum_hessian":[1.0017158E2,8.7082985E1,1.3088598E1,8.428723E1,2.795752E0,8.288455E1,1.4026773E0,8.148572E1,1.3988324E0,8.008689E1,1.3988324E0,7.869535E1,1.3915393E0],"tree_param":{"num_deleted":"0","num_feature":"36","num_nodes":"13","size_leaf_vector":"0"}},{"base_weights":[4.62904E-1,6.0760325E-1,-4.6931264E-1,6.442102E-1,-3.7001225E-1,6.633963E-1,-2.933489E-1,6.831798E-1,-2.930316E-1,7.036454E-1,-2.930316E-1,7.247179E-1,-2.924306E-1],"categories":[],"categories_nodes":[],"categories_segments":[],"categories_sizes":[],"default_left":[true,true,false,true,false,true,false,true,false,true,false,false,false],"id":112,"left_children":[1,3,-1,5,-1,7,-1,9,-1,11,-1,-1,-1],"loss_changes":[1.3862547E1,3.372139E0,0E0,1.7194595E0,0E0,1.7778053E0,0E0,1.8441963E0,0E0,1.9036636E0,0E0,0E0,0E0],"parents":[2147483647,0,0,1,1,3,3,5,5,7,7,9,9],"right_children":[2,4,-1,6,-1,8,-1,10,-1,12,-1,-1,-1],"split_conditions":[5E-1,5E-1,-1.407938E-1,5E-1,-1.1100368E-1,5E-1,-8.800468E-2,5E-1,-8.790948E-2,5E-1,-8.790948E-2,2.1741538E-1,-8.7729186E-2],"split_indices":[3,25,0,31,0,18,0,29,0,15,0,0,0],"split_type":[0,0,0,0,0,0,0,0,0,0,0,0,0],"sum_hessian":[9.9654526E1,8.6565926E1,1.3088598E1,8.377017E1,2.795752E0,8.237685E1,1.3933257E0,8.098734E1,1.3895069E0,7.959783E1,1.3895069E0,7.821557E1,1.3822637E0],"tree_param":{"num_deleted":"0","num_feature":"36","num_nodes":"13","size_leaf_vector":"0"}},{"base_weights":[-1.832587E-1,-4.9791193E-1,5.6224483E-1],"categories":[],"categories_nodes":[],"categories_segments":[],"categories_sizes":[],"default_left":[true,false,false],"id":113,"left_children":[1,-1,-1],"loss_changes":[1.8823692E1,0E0,0E0],"parents":[2147483647,0,0],"right_children":[2,-1,-1],"split_conditions":[5E-1,-1.4937359E-1,1.6867346E-1],"split_indices":[10,0,0],"split_type":[0,0,0],"sum_hessian":[7.805248E1,5.5120144E1,2.2932339E1],"tree_param":{"num_deleted":"0","num_feature":"36","num_nodes":"3","size_leaf_vector":"0"}},{"base_weights":[-1.7845175E-1,-4.9782068E-1,5.2949965E-1],"categories":[],"categories_nodes":[],"categories_segments":[],"categories_sizes":[],"default_left":[true,false,false],"id":114,"left_children":[1,-1,-1],"loss_changes":[1.8245775E1,0E0,0E0],"parents":[2147483647,0,0],"right_children":[2,-1,-1],"split_conditions":[5E-1,-1.493462E-1,1.588499E-1],"split_indices":[0,0,0],"split_type":[0,0,0],"sum_hessian":[7.85328E1,5.4323402E1,2.4209396E1],"tree_param":{"num_deleted":"0","num_feature":"36","num_nodes":"3","size_leaf_vector":"0"}},{"base_weights":[-1.7612605E-1,-4.979124E-1,5.5527776E-1],"categories":[],"categories_nodes":[],"categories_segments":[],"categories_sizes":[],"default_left":[true,false,false],"id":115,"left_children":[1,-1,-1],"loss_changes":[1.9110754E1,0E0,0E0],"parents":[2147483647,0,0],"right_children":[2,-1,-1],"split_conditions":[5E-1,-1.4937373E-1,1.6658333E-1],"split_indices":[8,0,0],"split_type":[0,0,0],"sum_hessian":[7.9024704E1,5.5101593E1,2.3923105E1],"tree_param":{"num_deleted":"0","num_feature":"36","num_nodes":"3","size_leaf_vector":"0"}},{"base_weights":[-1.1842962E-1,-4.1184917E-1,5.63742E-1],"categories":[],"categories_nodes":[],"categories_segments":[],"categories_sizes":[],"default_left":[true,false,false],"id":116,"left_children":[1,-1,-1],"loss_changes":[1.6606762E1,0E0,0E0],"parents":[2147483647,0,0],"right_children":[2,-1,-1],"split_conditions":[5E-1,-1.2355476E-1,1.691226E-1],"split_indices":[26,0,0],"split_type":[0,0,0],"sum_hessian":[8.080646E1,5.678013E1,2.4026327E1],"tree_param":{"num_deleted":"0","num_feature":"36","num_nodes":"3","size_leaf_vector":"0"}},{"base_weights":[-1.1841483E-1,-4.6383774E-1,6.702785E-1,-4.9781746E-1,3.8708857E-1,7.547483E-1,-3.1681934E-1],"categories":[],"categories_nodes":[],"categories_segments":[],"categories_sizes":[],"default_left":[true,true,true,false,false,false,false],"id":117,"left_children":[1,3,5,-1,-1,-1,-1],"loss_changes":[2.2421526E1,1.8417282E0,2.3343096E0,0E0,0E0,0E0,0E0],"parents":[2147483647,0,0,1,1,2,2],"right_children":[2,4,6,-1,-1,-1,-1],"split_conditions":[5E-1,5E-1,5E-1,-1.4934525E-1,1.16126575E-1,2.264245E-1,-9.5045805E-2],"split_indices":[0,27,25,0,0,0,0],"split_type":[0,0,0,0,0,0,0],"sum_hessian":[8.015994E1,5.6031708E1,2.4128239E1,5.4279167E1,1.75254E0,2.2443083E1,1.6851552E0],"tree_param":{"num_deleted":"0","num_feature":"36","num_nodes":"7","size_leaf_vector":"0"}},{"base_weights":[-1.1096099E-1,-4.1184592E-1,5.6498873E-1],"categories":[],"categories_nodes":[],"categories_segments":[],"categories_sizes":[],"default_left":[true,false,false],"id":118,"left_children":[1,-1,-1],"loss_changes":[1.704438E1,0E0,0E0],"parents":[2147483647,0,0],"right_children":[2,-1,-1],"split_conditions":[5E-1,-1.2355378E-1,1.6949663E-1],"split_indices":[21,0,0],"split_type":[0,0,0],"sum_hessian":[8.1660225E1,5.6777584E1,2.4882643E1],"tree_param":{"num_deleted":"0","num_feature":"36","num_nodes":"3","size_leaf_vector":"0"}},{"base_weights":[-4.8018374E-2,-3.1605667E-1,5.81418E-1,-2.6340336E-1,-4.6931264E-1],"categories":[],"categories_nodes":[],"categories_segments":[],"categories_sizes":[],"default_left":[true,true,false,false,false],"id":119,"left_children":[1,3,-1,-1,-1],"loss_changes":[1.448503E1,3.61341E-1,0E0,0E0,0E0],"parents":[2147483647,0,0,1,1],"right_children":[2,4,-1,-1,-1],"split_conditions":[5E-1,5E-1,1.744254E-1,-7.902101E-2,-1.407938E-1],"split_indices":[17,3,0,0,0],"split_type":[0,0,0,0,0],"sum_hessian":[8.376683E1,5.9098343E1,2.4668484E1,4.6009747E1,1.3088598E1],"tree_param":{"num_deleted":"0","num_feature":"36","num_nodes":"5","size_leaf_vector":"0"}},{"base_weights":[-1.04986064E-1,-4.1187632E-1,5.778034E-1],"categories":[],"categories_nodes":[],"categories_segments":[],"categories_sizes":[],"default_left":[true,false,false],"id":120,"left_children":[1,-1,-1],"loss_changes":[1.7615252E1,0E0,0E0],"parents":[2147483647,0,0],"right_children":[2,-1,-1],"split_conditions":[5E-1,-1.235629E-1,1.7334102E-1],"split_indices":[29,0,0],"split_type":[0,0,0],"sum_hessian":[8.192999E1,5.679802E1,2.5131971E1],"tree_param":{"num_deleted":"0","num_feature":"36","num_nodes":"3","size_leaf_vector":"0"}},{"base_weights":[-1.2121583E-1,-4.286972E-1,5.8697987E-1],"categories":[],"categories_nodes":[],"categories_segments":[],"categories_sizes":[],"default_left":[true,false,false],"id":121,"left_children":[1,-1,-1],"loss_changes":[1.8021471E1,0E0,0E0],"parents":[2147483647,0,0],"right_children":[2,-1,-1],"split_conditions":[5E-1,-1.2860917E-1,1.7609397E-1],"split_indices":[34,0,0],"split_type":[0,0,0],"sum_hessian":[8.060397E1,5.6477486E1,2.4126488E1],